3439 20
new 2.3677304 2.6788986 4.2092147 -5.838231 7.6207175 -2.681338 -2.607556 -2.5543425 -5.5396504 0.69953096 -9.679858 -0.42461482 6.9652767 -6.5281634 2.940327 -2.9510279 0.65204513 2.0051508 -2.2541778 -4.765317
say 1.0824168 -5.6276536 -5.589721 3.242115 -3.4807222 7.144634 -5.1871295 -4.0367413 4.2296247 -1.8148918 -6.601872 -2.9027936 -5.7297525 -5.5720963 -7.0450554 -8.598832 -0.85072654 -0.07411437 1.8494862 3.4991918
year -13.351719 -0.3413201 7.5362473 -3.1948314 1.2679837 3.8748667 1.4683106 2.3153563 0.9413792 -0.7952409 3.293894 -1.6109244 2.3526947 -2.4021034 1.5815839 -7.3726945 -7.8905706 4.4181886 -3.0247386 4.1259537
said 7.6607747 -6.7033057 -0.9316215 -10.565963 -3.4677808 -1.7191882 -2.0098286 4.087804 5.1768827 4.090576 -3.6117027 5.0678787 0.01700437 3.0730143 -6.0522165 -1.8478692 -2.927426 2.5815492 3.9202187 3.0415356
one -1.1298729 -4.905793 1.3756231 0.51913023 -7.283679 4.730677 -0.3843297 1.2706178 1.2486016 -6.0412917 -5.4252024 2.0838635 -5.400962 -0.18602745 -1.5217978 6.3557134 -5.1274557 7.252299 -9.318406 1.337979
presid 9.708412 -4.101767 -0.40402016 -2.8866198 1.8337336 4.2250733 2.3909283 1.28704 -2.3624897 -0.5155425 -4.8640676 5.079436 -2.1689465 0.7943242 4.4440975 -11.165217 -3.2632325 -0.47636464 -6.030769 1.6957642
trump 3.2526002 -2.8687153 8.032698 -2.8462422 0.27057293 2.1617308 -9.955692 -0.7448011 1.4518056 -5.261261 -2.1969154 7.9005785 -2.259466 -3.463947 1.3797189 -8.380655 -0.757542 -1.1672351 -2.2460737 6.5533543
sunday -5.188175 -4.929028 -10.086211 0.56439304 1.5484873 4.63409 -5.2840824 5.408588 3.2335725 7.1096888 1.5605493 2.283418 -11.241512 4.975254 6.43136 -1.7961665 -1.698263 -3.05783 2.5350523 -6.9705553
saturday -3.8050818 -9.792038 -8.009876 -3.753315 10.887218 -6.0988426 1.744894 -2.31462 -0.09621387 1.2125032 1.1754714 4.020893 -4.3727794 2.3385153 2.545302 -5.6867056 1.7688184 -3.1445749 -4.2385116 -0.7151615
time 3.461305 4.516933 2.537359 1.8469423 1.0452725 2.3032625 0.5183345 6.5138397 -2.437944 7.505948 1.6826999 3.6328886 -5.3561506 11.133054 8.270148 -3.5006533 -3.6990893 3.7361217 -6.019974 -0.5286823
week -2.218821 9.751616 4.1219096 -5.098314 -2.6763482 3.059373 -0.85069853 -0.7404199 1.7678864 -1.3312961 0.35547498 -0.19699894 -5.099759 1.859046 1.1898353 5.080627 -0.33392766 0.68722236 -16.23591 -4.6264186
call 4.7856965 -5.024199 -4.48834 3.1418207 -4.8651476 2.6217458 -2.38069 8.205929 4.718215 -5.2924047 -8.663299 1.73808 2.0715842 -6.9730887 5.1364603 3.630428 -2.3604116 -7.1161857 -1.8071067 -4.1603613
peopl -2.911216 -4.4243026 2.274454 -2.3430355 5.502823 -3.016055 -1.4688219 2.1694283 4.4868283 7.7646914 0.64567286 2.0418437 -1.7158822 2.0748281 -9.803641 -3.4613948 2.0309453 5.0246906 -12.719408 -3.1066809
like 5.729064 2.445731 -5.551074 -3.1141703 -4.7527947 -7.957662 -5.5890703 -4.982338 -2.954666 3.3228292 -2.671246 6.4712715 -5.819671 -10.97288 -2.8497438 5.8008056 -0.68346184 -3.666867 -8.417757 0.42142844
back -0.12672296 -2.106303 -5.715469 -1.2343057 -1.6762446 0.06565421 1.0885268 2.5172389 -3.7896264 -11.343762 9.455464 -4.0728374 4.2895794 -6.212761 -3.424622 0.87600076 0.72189164 10.017955 -0.42711532 2.0610332
first 1.1137828 -5.5966406 -4.3906293 -5.7143683 -0.518199 10.924811 5.536436 -1.1785442 3.6182811 -3.9752083 -0.122809805 4.276561 -2.7568836 5.036675 -1.1787122 8.598204 -2.7232788 1.5186895 -6.5685835 0.54081947
citi 7.3588796 -2.6003978 -6.3745723 -0.54245466 4.7726507 0.5121822 7.935211 -11.926057 3.5488737 1.8981339 -0.56106824 -8.082588 0.1664679 -0.592676 11.052748 -1.6690645 1.2553531 0.89511913 -5.1019206 -0.29688263
face 7.3306932 -9.832165 1.5873924 7.866644 -0.72148496 4.7457123 -8.416769 -7.689015 -6.2485666 2.0695665 -3.6030061 -0.80178684 2.869875 -1.6282206 -0.52585906 6.5324802 6.504749 -0.82244104 -7.523382 -2.869628
win -8.558244 0.3040371 -4.399118 -3.9026535 -3.0940554 5.142052 5.2080016 2.97812 -10.231314 0.6919637 -4.1409574 -3.3922231 -3.6612508 6.0277414 -2.1225853 5.347495 -1.6382052 -3.077766 -0.37351972 -10.151482
report 2.7415423 -4.518292 5.959074 7.7586 7.212057 0.52335197 1.0568793 2.3714 2.7833526 -6.7584357 0.31525227 4.6686826 -6.1020474 0.8219609 9.153784 -1.77015 -0.39597586 0.33494815 -7.303327 3.1334794
parti -0.39506435 -7.986275 6.518601 -7.238462 2.322015 -6.1410694 5.337106 -6.94839 -1.6569723 -5.745715 -9.594486 -0.89325386 -4.477081 -3.9067085 -6.7708178 2.470471 1.8028097 -0.1281285 -0.6247886 -2.442893
go -3.2665443 1.2673455 0.9207863 0.76070654 8.560798 -4.9658093 4.0578585 -0.796681 -1.5132985 -8.422017 1.9968482 -0.8222452 -2.235264 -2.0238006 0.4962198 -0.91880304 -0.5459754 -7.4656806 -10.917869 5.9696517
make 1.6179951 4.1743503 10.886925 -1.6751347 -9.265644 -9.462896 1.671155 1.6596584 4.928336 2.4177876 -3.431582 -8.818211 3.0487366 1.8888469 -4.973829 8.812168 -1.3069161 -2.3864262 -6.1875987 2.248436
could -0.87714833 -1.7959381 9.203963 -5.360137 -0.81184053 2.6947248 0.30100667 9.334126 -6.2802696 -6.45355 2.8962135 8.643956 -3.3038886 7.746455 0.71648085 10.796447 -0.41124165 -4.018123 2.6430194 -2.7705998
two -7.0494137 4.8538113 5.015932 -9.453329 -5.5938835 0.2132862 -2.9895945 2.0428967 1.5189244 3.1241293 0.65814984 -4.928813 1.6116321 -0.09008714 1.5452008 -9.895854 -3.648006 3.916884 -3.6209192 -3.0954735
american 9.027496 -4.883825 0.46840778 -5.067737 -2.1759295 -8.646799 0.3472081 2.9454067 -3.705926 3.0069335 -0.7699221 -4.4596405 -4.0186644 1.7252791 0.8037027 4.117878 -6.614816 3.5938165 -8.7971 4.3898587
help -1.6263142 10.2816305 -0.5790923 -6.5701613 -5.717516 3.1454692 -9.079909 -1.2252655 -4.957774 -5.0859075 -4.6310177 -1.316488 -2.9957912 11.365757 -0.43635225 1.6263772 2.9769478 -2.8112915 -3.1424665 -0.07151366
us 5.4704885 -3.2706168 1.0598341 -8.795972 -0.80991876 0.72818345 -8.648798 -4.00652 -8.199203 -10.508467 -0.2551509 0.21964167 -7.7028866 -1.7177625 2.5926054 -2.301169 1.0852011 -0.52620214 -3.2980332 0.86281717
nation -5.024595 -7.0766063 5.633547 0.43643147 -7.509262 -10.329589 5.447021 -1.2252069 -1.0315065 -7.7319117 -2.3435566 -7.1341653 0.45747486 -3.873806 3.344018 2.6066012 0.67522144 1.5609473 -1.6705801 -3.8696246
get -5.064777 7.2695937 -9.3904915 9.8049965 -5.648069 0.65762156 -1.4643077 3.392075 6.59507 -4.4289618 7.1887746 -8.219207 1.2449783 -3.732083 1.2464559 -3.716971 7.0448966 2.067081 -0.05177786 -6.346933
would 6.301613 12.690111 -0.6172935 -2.5168679 0.84311265 -7.4885163 0.56536937 -5.499461 1.5952337 -9.96837 1.9216574 0.13921131 -4.96142 -1.343565 2.1702273 2.0680366 3.1975665 -2.327088 0.20356348 7.8012094
may 4.367154 7.1598153 -1.4612956 2.4096563 3.1265767 -0.3217618 -7.3521376 0.82600826 9.562862 0.1310828 0.3925703 9.292279 -0.68138057 1.8707107 -6.217267 3.0418818 4.3533616 7.301586 -5.811327 5.47544
need -10.089205 2.8902183 -0.12788057 7.1703224 -3.9945643 2.4818838 12.0664625 -6.509032 -1.1502254 6.252533 4.759938 6.07773 0.8713158 -0.21831566 -6.360026 -0.5463175 4.146453 6.1972513 -5.027658 -4.771671
man -0.17760758 -1.8769728 0.47569302 -4.888501 -5.4340944 8.654996 -7.6124744 4.7909184 2.5280912 2.5617461 3.51792 -9.659806 4.158235 -5.9512525 -4.510602 2.7035708 -7.4651356 0.2535273 0.4534909 3.3416624
lead -4.343062 -8.140564 2.17222 -3.1154428 4.341425 -3.3002155 5.282039 -0.3069759 -11.021925 -3.382494 -2.9583275 -1.750451 -5.0845203 2.2078395 1.1503881 0.4512677 -3.3637068 9.05114 3.275414 -1.9208868
take 5.586126 7.1488414 -5.1653347 -2.5673475 10.022559 5.6733713 -1.6362027 0.39006698 -5.804824 -0.7938907 4.8384147 -4.2626247 -0.94282657 -6.968257 -0.16272606 0.78496593 2.081412 4.3077555 2.2716088 -5.3378267
team -6.6750183 2.9239974 6.1586275 3.1308522 -10.0933275 -6.233555 2.2807307 -6.1280518 5.3280525 2.9210796 1.6634456 1.3882852 -9.633576 -3.4975147 -1.7660036 1.6015345 1.3318455 -4.0093465 8.206131 0.4615059
news 1.0926833 5.677232 4.493293 0.75536937 -8.3923435 -2.0761464 -6.7967205 -3.4367294 6.3772817 5.878185 -0.9989501 2.8039823 -7.17258 1.5769409 6.5756903 -5.504759 2.5979674 -1.9682596 -3.262255 -3.1013975
left -0.049770065 5.891899 0.71443325 -6.2438173 2.471724 10.643589 10.96319 -6.824255 2.2064066 -2.5357604 -1.8099327 3.1612403 8.114138 -2.6930692 -5.6913066 -2.0640311 -1.716196 7.820831 -0.18667804 3.978534
fight 2.7659311 1.9208534 -5.1469536 -1.7853833 -5.9724083 2.8143976 -1.7351512 2.658986 2.8621616 4.5991755 10.874975 0.93742263 -0.35292324 -2.526048 5.5037665 2.5706112 1.3962339 9.173165 12.418155 -5.9363933
want 8.188469 1.3097838 3.015356 -3.226683 -8.365324 4.1724977 -2.4624636 -3.0455399 -10.322456 -0.06323682 2.3119512 -4.2077775 -6.326847 -2.0992994 2.5518165 -3.3333175 0.98742515 -0.6816025 1.0210491 -5.597981
look -0.8235322 6.304278 -2.0354412 -6.269437 3.7760117 -4.2161317 -2.8486893 -1.462334 -6.7956676 -2.7483191 -0.5369877 3.699447 3.1650736 -7.2817335 3.1205938 11.821626 -4.596529 5.024264 6.1762304 4.42742
coach 9.758726 3.8918006 1.0943836 -1.9815607 -0.6561643 2.5045981 -3.9257252 3.5541837 4.7928524 4.297271 -3.5328631 0.99337703 -1.3358082 3.5537808 8.627017 0.024028324 -6.7339296 11.62369 4.186424 5.4896517
home 0.6703448 1.367374 -3.3051474 -3.6077 7.4017215 5.5509953 0.99176234 1.4213661 1.5543319 -0.016777193 8.44787 5.5172944 -3.4170666 -8.042807 -10.885972 -1.8529409 -2.0794332 4.8897114 -0.63360274 4.4880166
game -8.218176 -1.9090861 -2.015574 2.1407828 -6.617426 1.678631 7.005152 4.866243 6.9748282 7.63534 -3.3744369 -1.8071965 4.385597 -2.7657278 6.180085 4.0882382 -8.727777 1.2083241 3.3365822 -2.6870406
die 1.0172131 3.1444025 -0.38352203 -8.00576 -1.8176962 4.729179 -3.9810252 -7.5989885 -1.9519098 2.8315208 3.612929 11.128288 1.7411562 -1.2471977 -2.2702088 -7.333603 2.0031166 0.9002277 -7.183387 2.5840263
govern 4.9264383 -9.384641 -5.639582 4.1111455 -1.1821278 -4.985733 -4.585582 -12.434147 1.8722558 -0.07662394 -4.3977504 -3.962735 0.30372712 7.046032 0.38270962 -4.541628 6.5593123 3.6131523 -0.33404288 7.116634
watch -2.3528953 -1.7277657 1.191538 -1.7986275 7.2698474 -2.1789987 -5.1870313 9.071624 3.8064811 6.1798058 -9.700228 -3.2985718 -2.3876674 -1.2178838 1.2106286 9.581352 -6.484824 2.2864537 -1.512135 -4.4212523
former 4.0245504 -11.865409 -3.0576336 -2.7206044 0.2805423 -4.8785357 -4.620007 -2.245102 2.290625 -4.8626285 -4.8357077 -9.476987 3.2345874 -6.8067303 4.9478025 -7.203039 -2.2474222 -1.865598 -1.602976 3.8698733
player 4.1873527 4.037336 4.209557 3.5949495 -2.1591678 -0.25979894 1.9703574 -5.396774 5.8790317 4.720507 -11.027595 -3.7840009 -2.5741932 7.671383 3.722731 0.8537373 4.8649683 8.985678 3.9307964 -6.03141
come 6.9170218 8.448496 5.2798305 -5.5943832 -7.462953 -5.837164 5.4541345 1.6830988 0.7111717 1.4992213 4.6890206 -0.7694443 -3.3348737 -1.0162139 6.456256 -6.4112644 -2.444831 -4.846158 0.5810254 0.90549827
season -11.350662 1.5192575 -13.936687 -0.75504315 -0.5838577 2.120285 -1.6230011 6.5356007 0.21882463 -2.932507 -1.2921839 3.8900938 -0.8781353 -3.1914606 5.285319 0.50807345 -4.9084954 8.428357 -5.6244364 -4.723462
play -8.248589 -2.143485 -4.712913 2.2613878 -6.566795 1.9570134 -4.3550305 -1.7764215 -7.8795724 5.805923 -4.4096265 9.164594 8.016057 0.3742261 4.3745217 -3.4471092 -2.362036 -1.1909376 -2.0222828 0.32865936
compani -5.706055 6.545277 5.0237083 3.7438881 1.346985 2.029601 2.4555438 -3.0496402 9.268299 -3.2831757 -5.0130386 1.1560515 -2.4335475 -11.966217 -0.12436565 -7.6265473 -2.076198 -5.0401607 0.11791129 2.8762023
phone -2.661671 10.353284 -2.347478 -5.9652977 -0.971782 -7.5881433 4.4480095 5.3484607 -3.4445152 -0.56966925 -4.52961 5.7070484 -4.7014523 -10.173471 -0.96972406 -3.0973003 -4.873334 3.8246622 -4.73324 -4.880565
world 5.152779 0.7764539 -7.0952077 3.8198848 -3.4963844 9.060663 0.3830787 1.8149306 3.110638 7.720713 1.9348495 8.458212 -6.8553934 -9.444721 -3.8709056 6.18958 -2.3940945 2.400837 -1.2679199 -4.8828382
includ -7.10546 -7.9534287 5.178278 -1.5755708 -2.9081314 3.337488 1.2965753 1.6049429 -0.49402255 -4.689496 4.694992 0.2900078 -0.5786454 -6.4183183 1.5810622 6.8232403 2.2937646 -2.6006832 1.3412039 -10.409427
leader 3.1028674 -3.8709586 1.0164459 -13.254915 -7.6301565 4.9119816 -4.5488386 -6.351267 5.4922748 -0.7385348 -2.7089527 -0.67420965 3.8201668 -6.479939 -4.0222282 4.206142 1.9966977 -6.492705 5.2538767 -3.2183406
state 4.3930173 -4.65959 -4.2173676 -5.440564 -2.037243 1.080636 -5.541587 -7.1320395 -0.82886827 1.9657432 -1.3876998 9.806121 5.398641 2.4469912 0.8539857 1.142107 8.788628 2.5545208 -5.345634 -6.028106
sinc -0.65744627 -10.935642 9.401567 1.7180481 0.43640983 7.46384 0.011401629 -10.66085 2.482272 6.2702637 -0.7058574 4.462709 -0.031083759 -2.9057956 4.147798 -1.0459234 -2.3586788 3.8691118 -1.4350339 3.0213513
start -5.523698 3.2393787 -7.7334776 0.41491005 2.827963 -0.92702854 0.30867702 -6.3912334 1.7196172 0.6553655 -3.6106606 3.6415527 -12.200206 -3.1921756 3.2926798 -3.485914 0.15607661 7.4559393 -7.0078516 -4.4964595
hous 0.7692457 -6.278694 -0.11842146 0.031917397 -6.544746 -3.886518 3.7922277 -0.54278755 1.2170433 -3.9323237 5.615541 2.6637864 3.5309887 -7.557045 -3.3115838 -11.674511 -3.6904893 -1.9313444 -3.169605 10.95282
follow -1.7457652 -3.0953538 1.4975578 -5.446493 2.6572256 8.379924 -4.0271516 0.65708214 11.668953 -2.006907 1.0101006 1.2381731 -2.9193826 1.6321958 -0.61493295 -2.197358 4.6174016 0.3215718 -5.6005363 -7.1977987
star 0.16459198 3.1433723 -2.7125754 -6.5544925 -8.327507 -4.0462894 -2.595005 10.8510895 3.4247653 2.6106665 -2.261926 6.193825 2.4131622 5.4345775 6.0655046 5.158596 -3.6703765 -6.752959 7.844933 -1.0538546
claim 3.0071604 -1.9811028 3.9074352 9.413983 -8.647976 -1.0961957 -4.6781826 -1.4884988 0.6110314 -1.2394811 4.212528 1.9037027 5.714755 -3.3159266 -0.7487196 2.5258358 -3.5558414 -0.99538183 0.65367323 16.14403
media -1.7049739 -6.6236544 4.07458 -4.3544903 0.06793335 -0.5636359 -4.875438 3.9972847 4.6263556 -5.4891787 -8.410501 4.452373 2.304364 -1.6347784 9.258688 -5.505712 -3.854986 -1.2308375 -4.6644177 0.3942851
use -0.96953285 3.9931555 3.2178473 8.941973 0.11925744 4.0205326 3.895586 -1.4842186 1.1705726 -7.1733007 -3.6481287 12.716127 -3.1623485 -0.05766968 0.7804839 -6.7082596 5.5887213 7.9622545 -1.4536934 -1.6579673
campaign 5.7673974 -3.985644 6.538715 -1.0005836 -4.0486426 -7.7539754 -5.511481 -7.270866 1.6487848 1.3403827 0.2481807 -0.3717995 -3.4594634 -6.5576 -3.990087 -4.4242587 5.6628046 10.757059 1.7291684 -1.4672432
end -0.84573704 3.8912916 -8.377393 -0.37151322 3.5148065 -5.224938 7.2914424 1.3100897 -0.74481785 -7.554318 -0.02525483 2.6676788 -2.12088 1.2430528 4.507637 6.022556 4.7700715 10.839411 1.6520158 -7.6678843
ap 5.143207 -4.170409 -1.2911069 -2.0730264 5.1561623 4.3427176 -1.3998857 4.977096 4.378404 1.3323768 -2.084629 -5.834538 -0.7415332 -5.5774226 3.4924273 -12.366549 -1.9296108 3.2591035 -7.873444 -5.6617265
live -9.478363 -0.017950408 1.3097824 -2.207981 10.360061 0.30320194 -9.226446 -1.9412708 6.073206 1.3214104 0.4701211 -2.9973657 -2.3160532 7.1364317 2.4021165 4.9547925 7.085391 -4.852392 1.2354275 -5.0700197
rule 5.2633157 9.634869 3.9343581 -0.09968324 8.876495 3.1123486 -1.4172171 -7.4577994 0.94350404 -5.2348733 1.8247128 -1.7405745 -4.2673616 -4.3797855 1.1580797 -4.7235026 4.5425744 2.964293 -5.761592 1.5946686
day -5.9062595 -4.495778 9.444286 1.615612 -9.520054 3.2195904 -1.9653947 -0.48332232 -5.180595 2.330437 -0.100703865 4.6341896 -2.9082422 0.57615316 1.9321187 -3.5006537 -2.348007 1.1750066 -5.75952 -2.623652
made -0.39703998 6.981886 -6.5593724 -11.193858 6.3433437 -0.040647108 -1.8605714 2.3797245 5.62743 -1.9890189 2.1598303 -1.8473234 -5.125548 -3.4033828 7.301122 3.6997502 -6.4643674 -2.7484605 5.7599053 2.9700072
accord -1.9199626 -5.147345 -9.373754 -3.3274617 1.0326976 -3.5048122 -8.296311 2.2814515 -3.209749 -1.6910204 -6.734905 1.9639337 3.62594 1.4291129 -1.4062657 -5.1589336 -3.187042 -3.6206763 -8.383544 6.7472286
democrat 0.2107359 -9.940478 1.3952234 -5.1730447 -2.1677108 -7.0958714 8.037725 -0.9970587 -1.1116105 -4.172475 0.09487096 0.723786 -1.422083 -7.5570784 -2.5262415 -3.8900821 -2.1165586 2.931426 3.670441 0.34489495
show 3.1258364 -2.5359566 -7.11427 0.6476444 -0.38213915 -5.2187457 5.238428 -2.4758973 3.4097269 6.0744853 6.685744 -2.8599691 -2.8315148 0.35226452 8.143809 -7.102221 -5.4127555 11.492966 2.2364304 6.7152205
move 4.839367 4.9542265 -1.5996338 -6.127412 2.9917758 3.714167 9.592466 5.8101172 5.579781 5.965113 5.0092483 -1.9553564 0.5067279 2.3143663 5.1011305 2.4422755 -6.9540567 -10.47778 -4.9144573 2.0618653
point -5.533778 1.7180189 -4.7002487 -6.80051 -2.6855369 3.9873672 0.6822543 1.0068386 -2.3755412 7.092808 -1.544674 -6.275746 -0.63150686 0.9599518 -0.08125887 -2.7325406 -10.720434 -8.812883 2.239609 6.0343
attack 5.787694 3.311166 0.8639878 -6.268026 -4.661781 1.4585679 -3.8940113 -2.6511443 2.4962175 4.80163 6.257601 -3.099637 0.9677827 6.9457564 -10.172718 -0.815498 8.803354 -9.649267 -5.8771415 -2.038287
high -2.3806384 3.1861691 6.376633 5.794871 3.404972 1.8985872 5.4868054 -4.037934 -3.810891 1.966492 6.578696 -2.49046 6.3794255 0.76072794 -5.8655453 -2.4175436 9.221831 -2.1930344 -7.65198 -5.16699
annual -6.66171 -0.82458323 0.08224496 1.5330834 -5.1910934 -5.207042 -0.103162065 -0.98400724 -0.61155385 0.50716984 7.421966 8.685279 -5.050478 0.39535517 7.626445 -4.755682 -1.7941982 -5.2937665 -8.120369 3.5987003
elect 0.12890269 -6.957124 2.1817284 -5.667525 3.157241 -4.277727 2.4254122 3.8474607 6.3980937 -4.1916347 -5.081671 -4.008824 -3.2615952 -4.291004 -0.5339872 -9.270652 0.6320889 -1.4242698 2.7468073 -5.1954
unit -2.602007 -8.735823 0.9265482 -6.437541 5.5090384 0.5320258 0.06059434 -4.556309 5.0988593 1.1102899 -7.442161 7.9677534 0.53025675 1.7479951 7.0065312 -0.59908324 1.7967842 2.4600809 -0.28761512 -5.376297
announc 1.2640932 5.1508136 3.284321 -2.552062 -3.7529898 0.41927105 2.0211315 8.239766 3.1187885 -0.9892064 5.6355166 7.6298876 -2.225281 -9.923458 6.2116137 -2.9516597 -5.9672637 -0.399751 -3.4918878 -1.2375596
warn 4.4329343 -5.1217785 3.5072372 -7.7063975 -2.0120904 4.121482 -4.263168 -4.721482 8.571529 -4.302062 -0.6022761 1.869157 0.5265861 10.9882765 -3.4719923 -1.3550862 8.479074 -3.2476318 -0.17610739 0.6684348
see 0.44985148 1.6925442 4.7180734 -6.9088273 -0.27420366 -2.1259449 7.8081546 1.1758386 1.2591311 0.46210647 -0.2351034 2.8328319 5.1417794 1.783474 3.94788 -1.935644 -1.4669724 -3.7830467 -8.996448 -1.4732829
polic -2.6044035 -12.372141 -1.1857077 7.0337944 1.4840641 3.5629692 -0.2540301 -0.4753178 4.209573 7.4484906 -4.8660545 2.0169058 6.8010015 -7.2150455 -1.8335676 -0.1453054 -2.0719254 -1.8970338 -2.4924293 -0.4598082
last -6.163268 6.22493 -4.9500947 -2.360942 3.5331295 2.6211476 2.4962971 -6.3725014 4.8302817 5.266299 0.21396773 1.1256282 5.657684 -4.476889 -2.422091 1.0640737 -3.1287217 3.2085633 -11.487681 3.8971112
even 2.3360653 -6.1090655 -5.168622 4.1562266 0.69890606 -2.9798753 -1.6477664 3.5635808 1.6955814 6.5348673 -8.556812 1.7921352 -3.2241855 8.379835 2.2451508 -6.8429894 -1.7787706 -6.0135937 -2.8280134 2.5855038
republican 7.35355 -11.39553 4.9964104 -2.9291663 2.0966277 6.337816 3.0350268 -1.9229922 -2.292897 -4.058426 -1.7083915 -3.618838 -4.7388263 -5.74521 -2.5306947 -2.7174175 2.5063007 -1.2102689 1.9344563 -7.0918365
film -1.1659414 -11.5965805 -0.699843 -2.3178873 -3.0802066 -0.5028044 -0.43522316 -1.1255535 -1.8647095 2.8298776 12.592569 7.7565937 0.6795028 -1.8018911 8.50831 10.664899 -2.513503 -3.049423 -0.9504571 1.8495162
way -3.1334238 -2.0037675 -0.43578878 2.2335453 3.427031 2.1936793 -3.1144614 -0.693592 -14.629343 -4.1133413 5.620394 0.38714865 1.0939409 0.94778746 0.032336548 5.863898 2.3967297 8.669451 -7.28076 -2.8574798
support 14.818533 0.32756 6.6883993 0.46675926 -1.1998717 2.3751361 0.53849006 2.0335088 -0.6403254 -7.6581955 2.1580381 0.6106112 -8.42219 -4.9962945 5.2422867 -0.93801254 -0.48023066 3.2331703 -1.4204001 0.28767103
top -5.629004 -2.175711 4.995091 -3.562908 2.368804 -0.70395225 4.884733 -4.2012234 -10.354562 -4.4427953 8.013941 -8.0140915 2.9080033 -5.2655888 0.2989554 -1.1805097 -2.348595 2.406422 -5.0552773 1.5608248
appear 2.6828403 -3.9664757 0.7449718 -8.049071 -4.753841 -2.0420346 -6.7959976 3.2373748 3.0851467 4.6301866 5.9142847 -3.8564365 -2.0634708 -0.051525548 -2.0934918 7.3936086 -6.3534875 9.374291 -7.5061655 3.6148517
labour -2.0853631 -5.430796 -1.392195 -12.385311 -0.1918489 -4.308805 -1.1844798 -2.3626733 7.909889 -2.6959927 -2.3064396 -0.46029058 -9.378167 -4.519152 -7.9363904 3.584932 -0.2806053 -0.7881959 0.021176042 -2.0455306
work -0.85047966 -13.255869 0.6873933 -0.8640546 3.6653578 -7.940139 3.6153705 -3.531791 5.695763 -2.8182206 3.668545 3.5962815 -5.081883 -6.5709696 -0.6923872 7.9713926 3.080215 -3.6780372 -0.9615838 -1.4514127
place -4.292893 -6.28876 3.6064272 1.5163587 -1.9268674 -1.6151682 -1.7592402 -11.025099 -3.1161284 -5.6385064 0.4201297 4.102505 4.826581 -3.086425 4.3440375 7.6592097 1.5720203 4.16742 1.7988254 5.5881777
differ -2.0008535 9.655523 3.3372278 8.816001 7.2208095 -6.860121 3.8554819 -4.7687693 1.9071125 7.2370753 -1.881433 -2.3607643 2.1800847 -9.86623 -3.3326986 -5.4276457 1.710846 2.9563549 0.49556258 1.8893237
busi -6.391404 -3.5043926 5.9663224 0.8835618 0.48489812 -7.8314176 -2.0463233 1.9124137 -5.2571197 -5.210065 -6.3087516 5.6510687 5.564488 2.2242048 2.8709245 1.4762597 -0.8855276 -2.0786943 -7.6899366 3.4662209
mani 0.01254673 1.0401069 -1.4720623 -10.897668 -7.4394403 4.0128145 5.009286 -2.2211351 -2.977497 -2.8592284 -0.6081996 1.6502744 3.5697477 -0.37897322 -0.90516007 0.619256 -2.4826243 3.7513587 -13.242636 -3.1104784
set -0.5869743 -0.578873 11.911494 2.4293275 9.702834 0.5154866 0.15825634 -0.072458975 -6.1401744 1.6729556 -4.7100077 -6.0278935 1.0282085 7.7692738 -2.7760365 -5.4421253 -0.8578664 3.466931 2.3986425 5.3874574
car -3.0280755 -5.976382 -1.2213112 -8.0298395 -5.01503 0.8773677 1.2262931 2.5005474 0.3647512 7.0280147 1.6838807 -0.136191 0.7740865 -12.0104475 -3.5247846 0.013260927 -3.979049 -6.4795985 -8.900976 -8.8827505
best -3.653541 -5.8873487 0.34138796 -5.1658797 -7.5919943 4.034162 3.8633516 -4.641993 -6.6039634 -3.39859 2.8424788 9.488841 -1.1676846 -0.87336564 7.149949 2.6315176 -3.5291731 1.5237939 2.7656105 0.37416983
fund 5.6481624 6.192005 0.41555807 -7.5060863 2.071029 -1.8766503 -4.2530966 -0.7321301 -8.939461 -8.399089 -2.8916373 -3.2385948 0.65245414 5.208117 -8.457533 1.9665518 5.2214203 -6.231019 2.9011772 3.415335
hit -2.3932624 -1.3947974 -5.879229 -3.593838 -7.789428 8.545013 4.2233324 -1.6101705 0.8735514 -7.8259664 7.360731 -4.401348 1.8182358 -5.9904647 1.0267991 5.5718665 -0.66203564 -5.1419535 -4.636844 -2.8888485
lg -6.392546 1.6505692 -5.9390564 -1.9675515 1.9396555 2.3912373 -0.19869071 5.975889 -7.3035207 -3.4031818 -9.692692 9.49245 -0.5962661 -8.352401 -0.5255223 5.39264 -6.2726026 -0.3388486 1.6893922 -3.2742248
leagu -6.1781735 0.09620865 -12.41343 -0.83062726 -3.4768033 -1.6773888 1.0108411 -0.7286722 -0.51114 5.170865 1.4694573 -2.976561 -6.149122 2.816373 8.37163 7.666323 -8.360213 3.9760463 3.1967142 2.9672258
crowd -0.11770126 -8.254779 0.6004402 -1.1182233 9.589207 5.2736034 0.7056302 3.1780198 -0.3010353 8.60349 -6.302153 0.57798153 0.140927 -5.269863 -4.6640716 -0.600272 -5.065885 3.7111452 -7.5923805 -4.1888256
white 0.47826862 -2.133124 4.937755 -4.302088 3.4087696 -0.90800625 1.9404284 -6.743405 -0.59434843 -4.3337765 0.24274284 4.6943927 5.8509746 0.8902157 4.2447042 -0.79476976 -3.8708498 0.11995477 -7.2782793 12.883467
washington 1.0918269 -2.8948696 -3.4974494 -5.753681 1.3936377 0.086808994 3.0275147 -2.5795348 -2.4378579 1.5989805 -0.41157675 -1.4196624 -6.2584534 1.5135878 -4.062701 -5.5732703 -4.8801117 0.94738066 -14.154727 4.3683577
run -1.9212883 6.0359087 2.692462 3.4795732 -7.4894037 -7.1796093 -6.371487 0.60741735 -1.1021115 3.1027303 -1.9864055 4.4035873 -1.3323318 -8.993756 -1.1575236 1.7452333 0.39232457 -0.25783107 -8.3195505 -2.7424479
u 10.1880865 -5.678667 0.74250805 2.5976856 -2.610275 -2.6525073 6.955902 4.258006 -4.3374977 -4.9264565 6.343939 5.9663215 8.027258 -5.2258472 2.174224 -4.6200924 3.426884 4.8120694 -0.6810617 -1.2830218
oscar -6.8826547 -3.3170917 -5.4891915 -0.20852906 4.7006125 -0.4194255 -1.8496959 6.335545 -3.1479595 0.25395995 -9.436962 -0.25564954 -4.4386253 8.862487 3.1838856 -1.0749863 -5.490043 -1.536191 -8.089338 0.046768162
final -5.7921762 6.00298 -2.342492 5.6400166 9.809612 11.094163 -3.7232084 0.27877808 8.784019 2.1586065 4.3196955 -3.9561448 -3.5337903 3.2672215 1.2275925 -0.4599231 2.687112 3.6163456 -0.3287248 -1.7127737
name 8.47024 2.314497 -7.335533 -5.309632 -7.085956 5.8399286 -2.2508404 2.659612 2.2840052 2.0758734 -8.297211 1.932628 3.50746 -1.7705674 3.9558733 1.0723127 -7.9336023 -2.1855087 2.5034018 4.6409173
group -1.1148169 -4.6792393 1.1034758 -9.203725 3.1288612 -0.56976986 0.2954519 4.4923015 8.155765 3.276803 5.2915053 -3.0095737 5.720473 1.7196409 2.4062684 -1.632712 -2.6015744 -5.2982 -11.333852 0.09556654
bill 2.1693752 -0.8181415 -0.5325957 -6.488244 -10.403343 -0.6228051 0.98660946 -3.76526 2.649971 -1.1228753 7.2756715 8.5182085 -3.6812286 5.0108404 11.070516 -3.1503553 2.6693907 2.8004746 -4.236066 -2.9339356
minist 3.9162927 -0.8245705 -3.6477866 -1.8616863 -2.791984 -8.113581 -7.888654 5.3385687 6.975588 -5.2854614 -6.5383434 0.7703681 5.0712185 -2.0950978 -7.683514 -1.6582687 5.693187 -9.91662 3.7985532 2.3830876
uber -1.9018196 -2.8239336 -0.6528199 6.5143948 0.8263325 0.45180368 -6.5779467 -3.2807214 -2.8726676 -8.129558 -2.6070218 -3.523348 0.28471455 -2.3270602 3.6150434 9.777247 2.6298714 -8.385539 -6.778626 1.8014897
chairman -1.0580095 -5.3791494 -2.4327996 -8.430821 3.672605 -6.245774 4.5904093 -1.2338771 3.5010252 -7.9867306 -4.4184976 -3.8516212 -0.6400742 -6.0094256 4.269964 -2.0144992 -0.016734527 -0.37878618 0.20841974 -3.9056392
twitter 2.9827223 3.6522713 0.96115065 -5.1162853 3.3669198 -2.9462798 -9.497683 3.4364662 2.260915 0.7992267 2.2227972 8.384569 -1.4293711 -3.743588 8.883829 -1.9528949 -0.8992008 4.287445 0.36413467 -0.21774225
internet -1.3037914 4.424571 -5.4385514 0.6893008 2.216214 -2.2406735 4.5246415 -0.059860628 -6.0904527 -5.8704786 -8.214586 1.0027347 -1.256121 -5.295025 4.802816 -5.2476544 -6.805943 -1.3319848 1.0866991 5.8897734
old 2.140847 1.6632282 6.7990766 -5.7457786 -3.8967488 6.3400307 2.7157109 6.4696465 -4.6680584 -5.574077 12.005907 5.625035 1.0346694 2.6586564 -5.0226307 -6.522035 -1.7354283 5.048245 -1.8042948 4.7373886
mobil -2.4126203 8.269754 4.828205 2.9685373 -3.7696555 -2.7416332 -0.31198958 6.5134897 -5.371542 2.1267796 0.7100633 2.8707533 -10.347008 -8.043081 -0.009355784 -4.361339 -4.527308 -2.7657957 7.312123 -2.0510483
record -4.9106703 1.7448593 0.609511 -4.436573 -4.097454 -2.9256678 0.046493415 2.045303 -8.145109 4.854319 9.292571 -7.280764 4.6876693 -5.8228564 4.680339 1.7543333 -3.754368 -11.951782 2.3646133 -1.8033229
driver 7.2385426 0.44271162 0.59561837 -7.41834 5.541439 -2.5470269 2.547193 5.0503464 -5.8447256 5.479318 6.7988214 -4.6240945 5.5234885 0.5218113 -0.0446854 6.057326 -2.3266647 0.6405255 -7.7234807 -1.6217958
public -2.6701772 0.8529904 -2.407269 6.8093066 8.987665 -2.1175377 -6.8938484 6.894838 0.062735885 -6.559644 -2.5658338 3.2618463 -3.5733905 -2.2996051 -8.142544 -6.7669306 1.6660212 1.7131876 -7.184864 4.9703856
month -7.411526 -3.4145677 3.4021087 -6.240708 -0.3234298 10.405226 -0.060064953 1.5844343 2.0591185 -2.7529764 -2.7056553 5.3129516 0.3636139 5.5975003 -6.690511 -2.597259 -2.2035787 1.9534988 -2.8949566 1.3435917
ask 7.0725937 -0.71241254 4.909156 -3.869574 2.191755 -2.2236032 -10.829123 -0.6313159 7.445709 0.19634873 -0.5249074 5.5351415 5.0689325 6.0004816 4.761405 -2.3230464 4.3125057 3.9597235 -5.548714 4.5100846
head 5.0568295 -0.50276846 6.879871 -7.7498527 3.3875077 2.7020886 1.2482747 -6.7281613 6.0964026 -1.9755082 -6.1467214 -6.970515 -2.9346447 -2.990107 9.592548 6.607055 -3.5260973 2.2477086 -2.9622386 -1.4281491
well -4.2905407 6.032479 4.4756246 6.060366 1.3683271 -5.160193 -0.15196848 6.58715 4.1349773 -0.3922206 0.51667607 6.3713484 7.377567 -8.941108 -5.2501793 2.3916867 -0.1554397 -6.040122 -1.2001449 3.7728553
plan 4.1396117 -0.36297 -5.086607 -9.912347 4.8168974 6.400709 0.24744947 3.3356323 -1.8640904 1.0427368 5.576074 0.52099556 3.6454823 9.516793 3.600594 -5.376579 2.855453 -1.7109454 -1.6297181 -4.113511
countri -0.04568334 0.29097444 6.973329 -9.285153 -3.069777 7.455674 1.6709037 -8.103134 0.84038764 2.7948833 -6.8456483 -1.4438051 2.7211 -4.1178164 1.2338029 5.1200385 -6.2061453 6.3858786 0.13817994 0.63970375
administr -6.2128863 -8.21186 -5.77657 -1.2181053 2.969365 -1.6862383 -3.0923686 0.3056928 -6.6580563 -9.621254 -0.7162703 0.744693 3.6068826 -6.806245 3.9555817 -4.453266 -3.2716591 4.7455826 5.3729377 4.5191994
today -0.103578515 0.48368856 2.467856 3.8169343 -1.9661218 4.5060244 6.7139034 7.2984343 -2.9554021 -4.8258595 1.1284244 0.55586755 -10.099306 -3.0553992 7.921907 -3.1376505 -7.384307 5.0131445 1.0057993 -2.059052
train -6.528135 12.359144 5.2283416 -1.1068228 1.0133183 6.744216 -1.8054068 -8.545063 -1.1941634 -3.4190848 -6.4895296 4.202952 4.2161946 1.6125957 -3.3933203 -1.5907986 8.161178 -1.4637003 5.232242 -3.2775939
give -1.2429681 -2.0981271 -4.798264 -3.911273 -6.246642 3.1034641 -3.6144047 1.5668585 -8.10348 -4.825904 14.010245 -4.235117 -5.487179 -0.54946387 -2.7261944 -0.69498897 0.249994 8.290546 -5.876538 -1.4149255
speech 1.9664496 -4.992536 2.3834846 -8.509963 -3.82629 4.892099 4.2325754 -3.4899225 3.8761234 -4.0485926 3.7187338 6.7346206 7.145606 -8.241882 -1.4825277 -2.5379558 -1.8654248 1.3401583 -0.15950206 3.4718595
goal 1.0107919 -5.364104 -3.123303 -9.070224 1.9155153 5.911055 -0.8082591 -1.2161883 -9.758013 -1.5091343 -2.3644028 -7.515604 -3.389131 1.7786924 5.366406 -0.5278792 -9.30954 0.91304415 -7.337428 2.644491
dinner 1.3231846 -3.000388 0.22132577 -7.0361643 -2.8471222 -1.7193468 7.4575396 2.5534253 5.8728223 0.12971589 6.9916563 3.5213492 -10.429447 -1.3181792 0.8813136 -2.861887 -5.6541176 -5.2493753 -3.467694 3.034087
miss 1.6223507 7.891388 -5.0672154 -2.3297985 2.541077 -9.083643 -9.953038 1.3548998 -1.6520735 4.6395264 3.618534 3.5235202 -0.5181551 -2.4059308 0.16520008 3.3444867 7.0775614 4.3994455 1.0081413 -6.639497
famili 3.4560795 -1.8103845 -5.616688 -7.8382254 -1.9241966 0.4749982 -8.357492 -2.0321264 -0.82340807 1.2182181 2.85643 2.0542033 -1.2797157 -0.20444718 -3.563251 -10.87521 -2.9175277 4.3243732 -3.2664912 9.032601
life -2.509338 -0.107214645 7.262454 -10.266826 5.7356234 1.2130476 -14.997528 -0.7507993 -0.40394464 0.76835173 3.2994995 4.545579 -0.07511578 -2.088983 1.0780895 6.514319 -2.0347142 2.9710295 -5.4663534 3.2117465
award -3.120898 -6.76786 -6.0501857 -0.8309927 3.7634184 -1.7963455 -1.0393807 6.4476824 6.711813 3.32821 9.3877735 -0.45164517 2.812758 0.69447714 9.812043 -0.0095736645 -4.6766095 0.32775524 -5.2935925 2.4411333
four -12.245778 -1.4578809 7.649111 2.6757376 1.6795136 4.9477615 -6.391553 1.1108 5.09335 2.0217726 5.3645144 -1.769381 2.6974483 -5.386732 -2.891401 0.05084302 -1.2285179 -0.30137464 -5.799342 0.54333085
regul -0.9616753 0.48832247 3.3226087 -0.31404367 2.274747 -8.29285 -0.09405314 -3.5553455 5.1573534 -5.4673486 0.6067064 -0.6486579 11.848727 -2.7044024 5.5180087 3.9070263 7.3526783 1.5290648 -7.7327914 -2.2334461
london -3.5668702 4.8950953 -7.0624623 -4.0609236 9.016099 0.22338536 -2.4204042 -0.25332373 10.462735 0.9649913 -6.743021 -3.7384646 4.5053844 -1.6391861 -4.738089 -2.6157422 -2.3470235 -2.68052 -1.707896 6.5556774
launch -4.075041 -2.8894174 11.429104 -0.010929958 3.1636257 -5.78816 1.1436177 10.20926 6.4527073 5.036711 8.401378 -1.0725307 -4.202538 -1.3790132 -1.8126302 -4.985359 -0.8580223 0.15198292 -1.8296541 -3.3618107
seri -4.645499 -2.5863206 8.465509 3.5298576 0.27088183 -2.5946333 -2.373521 6.5099974 -3.662355 4.7023625 -1.9689882 -1.1338196 -1.279907 1.2853088 8.26404 7.2094493 -4.387478 4.283914 -3.0381887 -5.30725
big 1.5981389 3.222451 -4.0984416 -6.442758 -6.0325365 3.4827142 7.371993 4.81479 -0.94042724 2.7264655 -1.4859612 1.4016557 0.3239201 0.9354977 5.6105146 4.086835 -8.112745 -2.9112701 -5.075952 -1.9744319
good 3.514147 -4.5769186 -4.9799404 3.650131 -5.2885485 3.124675 1.242321 1.8294915 -0.5206118 -8.540608 8.202051 5.643479 4.832639 3.4638765 2.0299432 5.4266286 5.101684 -9.537109 3.4027307 3.9429982
push -4.8754935 -2.3120883 -3.159269 6.389104 -3.2040296 -1.1042691 3.500107 -7.0191846 -3.8453417 -4.2874403 -2.8755631 -2.8419132 7.799272 4.126365 1.0008959 -8.790028 5.909538 11.147318 0.19603865 0.052359793
friday -0.9159656 -5.519775 7.7863154 -0.7074888 -8.133507 -1.6276636 4.2315664 1.2784804 8.808497 -6.9109855 8.757939 7.51214 -0.5561284 -0.7921691 -5.3518867 -3.8828857 1.2415401 -0.9968697 2.815659 8.191141
challeng 1.9528052 9.381524 -6.6908774 -3.145303 -2.4185169 4.0153546 0.7635046 0.033740766 4.642902 -0.18864346 -0.63972485 11.630955 -1.723254 -3.069568 3.9123354 10.935789 -0.52098584 0.006902581 -3.4990563 -2.8744586
russian 2.9656847 -7.649455 5.355379 -8.08392 -6.2273493 -2.8322308 -6.901754 -3.9366715 -6.6505184 1.151727 3.5056438 -7.3169336 -5.548762 -2.1391237 5.0605035 -4.631442 1.6173693 -0.34975198 -0.78999704 -6.640467
everi -3.850688 2.8719325 8.400512 -1.0943632 3.8022923 -1.1646265 -0.38352174 -2.9005938 -10.031199 6.352565 -5.0831113 3.8859396 1.5364925 0.74235106 7.9755416 0.6518048 -5.2977376 -0.49797505 -6.0640388 0.8041687
close -5.417345 -2.5152586 -7.9805923 -3.7654784 -4.18079 -0.74172825 7.4183173 -1.356644 2.0629838 -4.100432 5.1075892 -1.2879709 -9.954394 -1.2104921 -0.8146044 -5.2681146 -1.289454 -6.609541 1.0144057 -0.3156871
million -6.5970874 -0.36410946 3.955346 4.1647234 0.16516003 1.2087007 7.146685 2.705508 -3.7257452 4.4554977 -11.228825 0.34036335 -2.9922614 -1.8394411 -0.72424704 -5.148892 -5.8738165 0.37315992 -7.851279 -4.516923
protect 4.1012263 2.813007 1.0919245 -4.733377 2.3424835 -7.837255 7.3618608 -3.840898 -1.4223666 -8.497147 -9.7972555 2.1135292 0.20802982 5.3131614 6.5653853 3.1216812 -1.5386763 -6.4844437 3.958038 8.237218
found 6.587263 -0.85657537 7.174545 4.4496727 2.0756671 9.652701 -1.5612758 -0.29295096 0.29443792 7.280265 -1.8556423 9.983521 2.3071547 -2.7778747 2.415563 7.1195965 -4.8861685 -1.6728822 0.86574525 5.3784795
break 8.092933 5.8443375 -2.7058892 0.9639692 2.4758017 -4.242241 3.7235508 7.4719033 1.0651658 -5.0357013 -6.787946 6.5450635 -7.532526 2.0101237 -3.8558064 -0.025567215 7.175606 -0.6598289 -3.4717867 -9.566026
half -1.227026 3.0363233 -4.037058 4.6638274 0.64326024 -3.0278494 -1.9761735 -0.476019 -7.8586855 14.160508 7.031472 -3.802669 3.2691748 -1.2664043 -1.0952507 -6.583706 -1.1053356 -1.0171131 -2.700685 1.2828641
kill 4.0367594 -1.7814778 -0.48805892 -0.02745508 -0.49729052 -2.0742626 -3.6221566 -6.6064653 0.9093874 8.13271 8.268085 2.1791668 2.8274183 -3.3865082 -7.773321 -0.4599131 5.5765395 -4.3051643 -4.69539 2.4390762
moment 2.3543377 2.7638078 -0.6673145 -6.4976687 -3.3026288 -3.1496155 6.34123 -6.680055 -2.2463636 6.5831013 -0.5886391 -0.90232354 6.2482843 -3.0208697 7.7594495 3.865871 -8.764444 4.635959 -8.801075 6.170065
still 1.1231289 -3.3664286 -0.64321315 9.342066 0.9019494 0.9729086 -9.365824 0.20922662 0.4969356 -0.5789061 4.284157 0.38100037 0.3702111 -1.2158883 9.238026 -2.4150767 2.3161068 -6.259023 -2.898532 2.7717898
second -4.475427 -1.7411785 -2.438881 3.6433487 -1.8594875 -5.0252414 1.8478882 6.0660686 -4.116966 2.9854426 6.0579348 -9.83005 0.27151418 6.486474 6.3612723 -2.2582114 -5.6250396 -0.58808374 -3.548055 3.989361
chief -1.9067484 -4.43633 5.025247 5.1709876 -5.908727 -3.626555 -2.6191025 1.2749238 -1.4346917 -0.84663516 -2.6596568 3.8771744 1.6661112 3.7163079 -1.870945 -12.483004 0.5778813 -6.6965084 -5.163725 6.9508276
expect -5.0426927 11.2035055 2.053496 -16.020847 -0.5417422 2.6843169 4.697403 -1.3838624 0.6383969 8.2480345 -2.010888 5.965373 -3.715126 2.4291399 -2.031738 -2.2203321 -4.348047 3.4524105 -2.0387807 -4.601205
screen -7.453879 5.186735 -1.7723904 5.9404926 -0.060136043 4.9813523 -4.1722193 -0.47895944 -8.932596 1.8053409 -0.82626283 4.6408095 1.9704612 -9.430089 -0.8853731 -0.5917132 -1.3905349 -0.6129895 0.33542177 -2.0356324
conserv -1.4832819 -2.9255474 -6.46298 -8.578372 -4.994576 -10.281339 -2.1817138 0.4316514 5.1859984 -5.7266583 2.7031555 -0.35598233 -3.110688 4.559025 3.8792036 1.4195522 -2.3368962 2.8302906 -4.3285675 6.4803658
learn -4.4195027 -5.306332 1.4886609 9.406375 -9.429149 -0.28480038 10.293803 -7.9340334 2.1641257 -4.6442204 1.8374925 3.3275373 -1.688829 -0.7405626 6.9311924 -2.2693672 0.27903178 5.001715 -2.7829716 3.0865698
seek -3.7281194 3.574327 9.26634 1.9468668 2.5593672 -6.0515842 8.297393 -7.2820415 3.1797433 -6.738222 -1.5460254 -2.553849 5.8164334 -5.8752193 4.7628856 4.320179 2.7667184 -0.9143298 -2.6289997 1.0338676
happen -2.0105546 4.2436852 7.0591807 -4.428331 7.206177 -6.0385766 -4.922959 0.65922856 -0.92319506 6.498846 6.337913 5.134688 -5.3997226 2.7407432 6.1110253 0.53562146 -2.2440622 -0.7454792 -1.1454254 3.3892374
statement 5.9766 1.5679853 -8.017246 -0.6313715 -1.0827253 3.059559 -1.9227263 6.627112 0.32636946 1.0409616 -0.24458043 7.4789705 -2.7614896 5.718311 -2.050851 -10.01985 -3.9530954 0.17005381 -1.1489618 8.5605
energi 2.6438003 0.4347341 4.77557 -0.27231815 5.0509815 -1.6909804 -6.6771283 1.6797165 -4.9040747 -9.2958555 3.4581363 0.32624337 3.6376095 5.9155817 -2.8143663 -10.927257 7.4443707 6.0127807 4.3213024 5.0917354
tweet 1.5528705 -6.2570686 5.2971554 5.2660365 -2.3347573 -1.2576555 -2.3384428 -0.41696468 4.6318755 -1.5972607 1.2307433 0.021286733 -9.602545 -7.6436524 -3.8140678 0.06329803 2.0989625 -5.856135 -8.453176 -2.1559844
actor 0.16992539 -1.6833683 1.9549115 -0.7714291 -3.986923 3.3171306 -6.167342 -3.2226257 -1.9868588 -1.2962663 8.187151 4.6787076 -4.7476234 -3.3827891 14.321374 4.861664 -3.4607947 -1.7700967 -5.715362 1.9159423
bring 4.577598 7.06627 -1.8625787 0.39165735 -9.212666 0.47806764 6.246889 8.984509 -3.3059723 0.69088036 2.8539214 7.3088636 -2.3552606 -9.005879 -3.4166589 -0.55191255 -1.1922561 -1.2729906 -0.001078922 -7.29791
anoth -1.1899891 5.8468866 2.4048953 5.462673 1.0802432 0.06372465 -5.939538 -2.9079041 -5.78221 -0.39092878 8.136089 5.6794596 2.7626739 3.5802486 3.9409204 0.10483624 6.233856 5.18679 -3.9308214 1.067995
data 3.6464381 0.985842 3.844114 6.1784525 8.129543 -3.964723 5.541919 -2.0329711 0.11145115 -2.8369308 -5.511219 -1.4404012 0.7994833 -13.558777 7.0043283 -1.6307853 -3.9809384 -1.9585088 2.337925 3.9974792
kick -6.4779887 7.1572194 1.0297327 -5.9749246 2.8548446 2.4997041 -5.1519046 -9.240509 -7.316482 -1.1264703 0.020410908 -6.2127633 -4.8383164 1.5960181 5.6884494 -2.966745 -1.1790864 -4.5751934 -0.034411542 2.3774679
becom 9.534384 -0.9903343 4.059041 0.9121254 0.089209236 3.4914868 -5.0018086 -5.7083383 -2.1818419 -2.3039782 -7.635458 -1.1131746 2.023996 -4.6227055 0.7153118 0.8163068 1.7250324 12.695889 -4.5101995 -0.81406075
intern 2.3522751 -7.350174 2.3392632 -0.46598613 -0.35014108 -2.7405937 -9.803111 2.003209 7.35141 -1.5771668 0.45913675 -3.3769226 -4.9910474 1.7281218 7.5641828 -3.879411 1.7928516 -11.010173 2.5844092 1.4737184
bank 1.2115859 2.4087358 5.0919967 2.427279 -4.398897 -6.743877 -6.367319 -0.13768044 10.633632 -5.2906866 -6.616193 2.0359542 -6.866529 -5.2010913 -0.8355382 3.8016016 6.311637 -3.197849 2.6399248 -4.364209
th -3.7190058 6.8862133 -2.0807397 -1.4146317 2.0011432 -0.65947974 4.043527 0.6924738 -5.9954414 -5.145333 12.219082 1.7848226 -10.1827965 3.3675048 4.82967 -3.5473044 2.6906621 -0.08158715 2.7128592 -2.2475688
ranieri 3.4611084 10.524184 -1.974541 -2.4525971 -0.46118066 2.844118 8.135401 -11.237825 4.5469074 3.4509404 0.59874314 -7.6518245 1.7435762 6.073781 3.053583 1.1353282 4.1056423 10.844428 1.2911917 -0.99847776
death -7.3285165 1.4650939 -2.7248616 1.3730128 0.32250535 -2.1246583 -7.067088 -1.5777291 6.0412254 6.7344985 0.91315436 -7.1878614 -6.8889003 -0.6463336 -11.081008 5.452247 -1.3831881 -4.501182 -0.03299203 4.9970007
secretari 2.5489683 -9.439574 -6.6545773 -1.9176052 1.2614589 0.11607516 1.5088326 5.617362 -0.97895384 -5.6357346 -1.48659 -2.448689 0.34087953 -4.321685 -3.8948848 -3.8815138 -3.674809 6.0551963 8.293755 2.9261258
stand 1.3953631 -6.078579 -4.9814334 5.8527064 4.589884 3.9942117 6.96972 3.1837356 -4.192726 -2.7308486 5.5071197 -2.9023337 -0.65979904 -7.177389 5.737834 -7.7766495 -1.0771372 -3.4270253 -11.066639 -4.300608
taken 0.21995652 2.4671443 -4.046114 -0.67098725 9.228473 -1.8831074 -4.099301 -2.0568516 1.4751357 6.3547564 5.9477015 3.133927 8.569314 -4.6889067 2.2766125 -4.2544584 2.574669 2.8357017 0.7473064 1.857261
penalti -6.8808684 -3.7298672 -8.1298275 -2.3353302 2.2272418 5.644809 4.3009896 1.3473488 -0.2113646 -0.0267733 -2.6107347 0.18157452 -5.1900706 5.722478 1.117896 8.319127 -1.4669385 3.1693826 -3.9226043 -7.170244
cut -3.764716 -3.4293942 2.038405 8.204888 1.5412203 3.0141737 3.5506592 -3.1007981 -3.4641361 6.239601 -2.7545893 3.7405114 -2.482307 0.9834489 -3.3441896 3.549897 7.323926 -6.542926 0.2311961 -10.578739
blackberri -1.9752098 5.9025574 6.9869256 -3.604526 0.382766 -3.6232984 -1.2395049 4.778777 -4.152648 3.0589705 1.5780351 -3.6993237 -3.9115264 -11.662481 -3.420537 -6.9155335 -4.809365 3.7035713 0.7655849 -2.9350615
late -4.656784 0.14126796 -9.987981 0.85367835 6.50076 5.435134 -3.0307803 -6.823766 -7.8425183 7.7266746 0.9918182 -1.885752 -3.7794907 1.762746 2.2130973 5.9598894 -5.2737017 1.9945345 -3.139799 4.515281
feder -0.34188288 0.8757219 2.125178 2.9401333 -0.7673055 -6.6426783 2.6748507 4.536546 5.5713005 -14.867936 1.2199724 -7.8425617 0.18689524 -2.578124 3.0601149 -0.42610472 3.3511157 5.0415783 -0.84534085 -0.4505149
offici 2.2301145 -3.91764 -9.109154 -1.0668128 -4.887919 8.060623 -1.6344775 -4.882841 2.5172174 -3.4228816 -1.2473241 4.7468605 3.2468243 6.1183558 -3.105184 2.313534 5.0817943 -1.4202597 -4.4386415 0.8203267
investig 4.2111545 -7.803 2.513117 5.6052437 4.3769736 -5.9623737 0.15672363 4.362652 8.442626 -0.2565427 3.801932 3.6839359 -2.9643078 -6.6728973 -4.1209593 1.9825038 2.7126722 -1.1845988 -6.1838403 0.33489624
press -3.3549826 -10.161074 -1.20807 0.20963977 0.7447425 -0.5891902 1.0984449 6.763358 -2.1834574 -10.44101 -3.5257614 7.1371627 0.29524374 -5.573626 -5.938715 -4.13241 -1.6717368 -0.5863012 2.1787515 2.4371684
club -7.0342035 0.7004398 4.5504584 -1.1737987 -0.7908529 4.2174954 11.035439 1.6830138 2.701312 -0.944813 4.635503 6.701404 7.1218996 1.2644821 1.332323 1.176279 -0.8946496 6.123557 -2.037922 -1.7720448
reportedli 2.0625572 -11.724127 3.0545702 -2.0368705 -1.9988517 5.6640677 0.81407756 0.67916125 -4.930328 9.592765 -2.4812918 9.342181 2.8251066 -4.747502 -0.4149764 -1.5035685 -5.1823015 -3.8104277 -2.201861 -1.4016851
air 4.105867 -4.1521096 0.35883626 3.7312474 -4.43618 -1.1443894 7.694946 -0.48451492 -1.0012933 1.9762188 1.5619465 -3.6339827 3.5590467 4.466176 -3.8259761 -3.8663232 2.2054236 3.7838268 -13.903714 -0.7223514
bad -1.8477281 5.605993 -2.851403 3.7454362 1.4111549 5.485544 -0.35302955 2.109311 -1.6259805 -9.7809725 3.981064 -1.6175886 -0.8494506 -2.6419272 -1.0092902 2.0809662 1.7766004 -9.197892 -13.31904 1.4061522
score -9.533177 -5.3044972 -5.342937 -1.286667 -2.5168064 0.8689199 -0.6866574 0.91098446 -7.020014 0.88095003 3.1513267 -10.061724 6.2284775 6.2630043 11.283834 0.3876969 -3.8086014 0.35981044 -3.400612 -1.5629863
suggest 5.346437 -4.6275153 3.334653 -1.7748635 6.569929 -2.7318516 1.5797083 5.3439245 -5.1112847 -5.8780837 0.92754066 3.798117 -13.132101 3.7086885 2.028722 -0.13700734 -4.51973 -1.7175313 -3.8392248 5.646395
chelsea 0.7680933 0.82377285 -4.450013 -1.7420893 4.477494 3.4628751 5.974694 0.08802172 -4.4727955 -2.1450853 -1.3908453 -2.7600305 1.0186037 1.482939 10.992666 7.0635896 -8.54678 8.009506 -3.3513384 3.3661773
pass -1.3003759 8.296854 3.1976998 -1.3995377 2.349053 -3.4643633 2.7618997 -8.071172 1.0422325 3.089814 5.5041833 1.4593076 0.5151403 3.4882593 11.647242 -6.3369317 0.071961336 -0.25917137 -6.6607194 5.163179
base -0.7364188 -2.178739 5.275028 5.8869977 -0.6726378 6.3720975 0.53290564 -0.6746139 1.5163615 -4.4685173 3.5409129 3.9051597 0.57894033 9.883518 1.7955819 -2.249545 6.8818207 -11.212655 8.01976 2.979698
brexit 5.1678543 -4.7004104 -9.063588 -6.9631996 -5.6785316 -1.8457325 1.0287874 -3.09671 5.3201027 -3.9837155 6.08213 5.5396585 0.37225014 7.731364 2.202123 -1.8877783 7.574985 3.2280757 -0.11595369 -1.4455457
donald 6.722207 -0.63608503 1.3844268 -3.0265715 2.925428 -1.5356144 -4.256836 3.0437417 7.805408 -2.3607373 1.8401378 0.37143353 -10.474555 -2.266139 -0.3697515 -5.4948716 1.8809475 -2.1353707 -4.501695 -1.2124001
hold -3.9899905 -4.6659765 0.7609515 1.1239313 5.75734 10.25267 0.5065309 0.6570764 2.1596024 -8.562954 2.0692544 -11.000828 0.79899055 -4.398832 -3.712102 4.737829 0.832824 5.144175 4.2664638 -2.4872315
part -1.9859489 1.8059775 -2.955093 9.059377 -8.210802 2.6052547 1.2508333 -0.030179435 -4.4811187 -2.329938 5.6159554 4.29974 6.387064 0.44164082 -0.91957784 6.0525403 3.1376786 5.0155115 -7.2239876 0.33301473
member -3.0796926 -1.1544036 0.26537433 -3.9737241 -4.645394 -12.075071 0.2949972 -8.400437 1.7141963 1.1110523 -3.9148521 2.7665622 -2.9732933 -3.1402385 -9.805607 -5.043932 4.980955 -4.3117805 2.1970968 2.471271
tri -1.9171861 2.3954132 1.9488568 -3.7555697 2.4129536 2.7081337 0.38960424 -1.2883157 5.0788403 -10.557818 -2.0929494 -0.5385439 -13.639137 2.586305 -2.909836 -1.3820807 -1.2736869 2.8404884 2.5525126 4.8424077
put -0.82817775 -6.603881 10.495726 -3.2300773 -4.83158 -4.233959 -1.636447 -5.7485795 3.1619036 -4.8573394 0.9427903 1.1066184 3.0693927 -4.466632 -1.7025783 -0.506341 2.6858683 9.838851 -3.5166109 1.3434373
women -4.658359 -5.7725616 3.3222299 -1.0358273 -2.885658 4.0266843 -13.104466 2.6827338 -6.1883273 -3.1441472 -5.247455 -7.729487 3.0892844 1.0411041 1.1426965 -3.3461602 -0.19331245 -0.89895064 -4.629602 -3.1024683
market -3.2322814 -3.8163648 -1.144304 10.704458 0.43350953 2.0094373 5.633625 -1.0047414 -8.134359 -8.568988 3.4015157 7.257855 6.3914285 2.4485624 0.3702516 0.9393798 6.3375444 0.47589716 1.2740927 1.6647986
begin -1.3056453 -1.6360548 0.8151013 -10.69776 -0.55158705 -1.6818486 0.484397 -0.3241335 -2.9716754 -7.3705654 -3.1613057 8.551987 2.505986 4.831185 1.9437785 2.9492087 -3.5592055 5.6934695 1.773041 6.5201893
hospit -9.633456 -5.90529 -1.3441815 4.216466 3.1836283 -1.2181804 1.6166451 -1.8158717 8.955616 8.428309 -2.430616 6.472318 4.589783 -2.5477517 -6.1827993 -3.2282212 5.2027407 -0.008508043 -0.35308135 -5.119245
user 2.0162857 -1.0440792 -3.3073046 6.809263 -6.625875 0.1393549 6.5970154 -2.5064087 -8.456762 3.9984956 -8.798692 -1.8438789 -1.7157387 -7.8453617 -2.1158707 -4.122963 -5.351426 1.6838033 -6.092727 -0.62758857
court 2.1610484 5.0745378 -0.80469286 -3.3940766 -2.229754 -2.0702164 -4.649098 -0.28005338 10.732744 -6.5122466 10.2053585 -2.5450015 0.0759632 -3.7651196 -1.2647904 5.57894 4.796637 5.793808 1.3692752 1.7236413
risk -1.5826787 -4.486003 4.168419 -0.639957 -1.9781181 5.513722 -3.1203327 2.5663319 1.9518753 -4.8646646 -2.9035761 5.2760434 5.319973 -1.5002991 -10.86836 2.315547 8.061926 -6.514093 0.11204253 -6.2655735
major 5.398035 -2.7315397 -3.5803287 0.650888 -9.2442 1.6926419 6.6397 -4.502661 3.8222466 -2.3136456 -4.5294695 -5.173639 -4.601422 3.7338452 0.31701678 2.0273166 2.1402967 -1.1300004 -5.7880983 -3.6237993
recent -0.43097448 6.112176 1.3828002 -1.0253406 -0.16515659 -3.308652 0.9310796 2.9291854 13.359535 -3.8459659 7.7398434 -2.8934383 4.7384706 -1.415821 5.0462146 -6.6894345 1.0686802 -0.113985375 -2.246685 4.920434
manchest -10.725052 -0.8687624 -1.1737853 2.9756963 3.2549248 5.0965405 -5.750288 -2.9988072 1.8618429 3.5995033 -9.329174 -2.1634154 6.504901 -1.130409 5.744278 -2.7963176 0.7368817 -3.6859481 3.8669755 -4.261275
got -0.9217174 3.691812 -5.3452563 1.0742296 7.772 14.05345 -3.821535 -1.2907614 -4.2340326 -3.5936747 0.9669786 2.054302 -2.0419269 6.118684 3.5144174 -5.189414 3.5458632 2.8069108 0.47010866 -2.278547
facebook -1.3532852 2.855784 5.6386614 10.914822 0.36121777 2.7955122 9.898064 1.0688539 -0.9228827 -7.163435 -3.7661211 -4.8278766 -3.8192387 -7.8143454 -1.6934018 -4.0364394 -1.8129649 3.8801153 -2.868085 -0.3315117
right 1.968178 8.346567 2.712815 3.5766943 -11.2691765 0.23424537 3.8771746 4.6309805 5.5051384 4.2393055 -4.27276 -0.09454412 1.5731989 4.6403513 1.1246346 2.8653867 -1.193123 -0.022146836 -3.2702649 -2.2839546
secur 3.9145436 -1.0724363 3.5196471 2.4226885 -1.2538519 -8.294627 -8.286833 4.271553 -11.712452 -1.2621936 -6.236986 -2.3665583 1.5565817 0.9860591 4.5596495 3.3554657 0.32465047 -0.73798853 -0.5654559 -1.3168108
despit 1.8315408 -3.3490005 3.0896227 -6.9720583 4.0194693 -2.478497 3.9196975 1.5649527 10.157755 -5.7182617 -2.2075534 -1.3822163 4.3920145 2.492517 2.5007434 -7.4100204 2.0692856 -5.461499 -6.445436 1.1063806
biggest 4.6906347 0.34906644 -3.1817517 -3.9529326 1.1719122 0.20052849 3.5006046 -7.4017406 3.9859314 -7.735518 -10.640318 1.1232506 -3.1462479 -5.8815556 1.637882 7.494228 -3.8853815 -0.112913944 0.6134752 6.2099032
next -6.433827 2.1268268 -3.5676024 -1.4241471 2.177512 8.95863 -1.9327997 6.634595 -6.5379367 -1.0645431 -1.0660598 6.015373 5.7969227 4.3477154 -1.7678206 4.9401574 -4.144592 0.9000831 -9.349705 0.6610951
tax 2.0490828 8.8890505 -2.9247186 -1.3086675 -4.1320596 -1.0773537 3.470823 5.6625323 4.410545 -10.957955 0.7011843 -4.1972184 -0.4006021 3.5955114 0.0035228445 -1.4863377 7.822341 -0.9935817 -3.1605732 -7.985642
percent 3.256918 -2.1054807 -8.148719 -1.298602 -0.050230276 -2.367626 0.23582102 4.4951577 -10.347066 -1.598431 0.36541706 -5.1856747 0.30794126 -7.00908 6.4568644 -1.4684987 -6.71115 -2.1041017 -4.079214 -0.04473121
england -0.27261654 -1.0070415 3.2098043 1.4561709 -2.7340236 -0.8770444 -6.3379636 -7.1088133 -1.580575 -6.6880865 -2.994376 2.0011182 -4.9568768 0.23526385 5.1319995 5.632192 7.8395915 -1.2815691 5.1865487 -5.0534406
art 0.8987925 -9.746366 2.3641691 -4.0816755 -4.021552 -6.167283 -2.4154084 -2.7674067 1.6948494 5.436746 0.1330678 2.6410053 1.5093962 10.058856 14.543802 6.764564 2.663181 -2.5519557 -2.3230104 -4.6750464
confer -1.0016849 -4.6053114 -3.8939915 -6.616135 2.1201708 -2.9619405 1.4814042 0.39828348 0.8333718 -4.0035753 -5.9547186 4.0731754 -9.275905 -1.6122214 1.2317069 -2.4908805 -5.552651 3.7635083 -6.5711412 1.4818897
design -9.294542 4.964404 1.4424744 1.0025097 -0.8142263 -5.727869 8.454483 1.2728215 7.1151495 4.3776836 -3.7952924 4.257372 7.2611957 -2.493616 -4.19174 6.7619987 -4.7764945 -4.1472874 2.1651857 6.4310255
accus 0.78240144 -10.47818 0.7158178 -0.82618356 -4.608539 -0.72922397 -9.682785 2.3052318 8.507434 0.25228983 3.305383 -10.894668 2.922171 1.4827306 -0.65433395 -4.443938 2.060811 -0.8220255 -0.045707315 1.3447798
ball -7.255537 1.1898707 -7.3806934 -4.05704 -5.50176 2.2931702 3.3967328 -5.7795863 0.5141655 -4.161324 -2.2704978 -10.539269 1.2062359 1.8382287 -3.2611506 -10.955571 1.9348614 4.912892 3.2362127 -1.1420366
premier -8.038065 1.692776 -4.2027864 -7.865298 2.5805554 -0.8906411 7.765629 -3.6369424 -5.5423245 -3.8323739 4.602674 -4.5227942 -7.7430024 4.4733367 5.224814 -1.94787 -3.8267765 0.004490342 0.3154169 0.7884777
also 3.379788 -0.9123959 4.7616415 -3.226869 6.5918016 -0.43636423 3.8228323 -4.295688 -3.638602 1.5860529 -3.3830166 7.91379 -13.853311 1.5412312 -7.6612525 -0.8392556 -0.6748291 0.39391327 -3.8811018 2.806074
forc 4.645151 -7.2225957 -4.825733 5.59663 -5.9799213 -2.086888 2.915856 0.70898193 -4.147499 -0.31828466 -8.040238 -2.1604443 5.544739 -0.7633182 -7.7138667 -4.0520515 1.7482778 10.946914 -2.6655862 -1.0619073
daytona -9.741406 -2.1034107 -4.9697514 4.4445796 -2.9772408 -0.61888635 -2.8211548 1.0619551 1.4060555 4.9097886 4.0412593 0.65205395 -1.9613192 -7.7438602 -1.218806 0.68899804 0.37114924 -3.807443 -5.100385 -6.1667023
remain -2.3149807 -1.9321017 3.4904869 -7.3089304 -6.2152925 -2.2072728 -3.0711944 -6.834066 6.142404 6.7109838 -2.0932934 4.466803 1.526233 6.356804 0.9555571 -2.9492843 6.301851 4.2462354 1.9285023 -5.796483
long -4.070962 2.9594154 3.9925551 1.2830666 -7.4185696 8.939801 -1.7543546 -4.5964875 1.6517819 8.003972 -4.204114 2.3095458 -3.1676965 -7.188862 1.0158119 -1.1456854 -4.976054 2.280776 -6.5461235 -3.574613
terror 1.926773 -1.6429238 5.0673876 -1.8264495 -4.5640316 4.066347 -6.846959 -6.988681 -4.8138285 3.5058613 -9.213304 1.5961674 7.997795 3.2620845 -4.9567537 -5.0325522 3.3055832 -2.0216873 -5.151113 1.5303848
reason 8.082707 0.30160543 0.6312954 1.7677845 -3.2576623 1.6150659 0.23161711 2.6788561 -8.581543 -4.6248603 -4.043693 -2.7678075 8.664168 -0.74539423 10.866814 -3.8864243 -4.062183 -3.2897797 -5.274932 4.060372
militari -1.8645046 -0.18823208 7.015019 1.7290522 -2.6035666 3.6595888 3.3825305 0.14868131 0.82230407 -1.723225 -3.7738452 3.8262095 0.8956678 4.404819 -2.790225 -5.4970517 7.3579063 -4.226617 12.907532 -5.8805327
price -1.9721152 3.8839102 0.08964552 -8.238509 2.155743 -3.5226464 6.4597225 4.6718845 3.578307 -3.658141 -9.997994 -1.564747 3.415009 3.7010918 -5.7196765 -2.8647933 -2.3696303 -4.1070027 -9.292672 0.7935466
obama -1.1700212 -11.190219 1.3900962 -5.723581 2.9559708 -3.2243297 -1.812584 -4.9693966 -3.4974093 -5.5931406 -0.18023919 -1.9211664 6.3213196 -2.9162543 3.5926695 -1.1813974 0.1464186 6.070269 0.71882343 2.4788709
oper -5.8217525 1.5569037 3.3456826 7.1960306 -3.925947 -0.22318837 -4.038876 13.020441 -2.0413103 2.1596777 -3.6304295 -0.5394553 -1.1451379 3.148703 -4.885597 -8.812681 1.1771646 -1.1913793 10.421021 -4.605316
defeat 0.015733754 -3.2198994 -4.9863157 -9.70167 4.5480423 -5.937734 1.1911038 1.2284005 1.9756786 -9.1462555 -0.44489962 -3.514093 -3.2107356 -8.887015 -2.7500446 -3.2629695 1.347303 -3.4183712 -1.9412781 -3.1833403
femal -4.6081285 -9.19667 1.5473096 0.5310385 -8.014353 -2.1476808 -4.9662805 -1.1652205 -9.852748 5.459269 4.1335325 2.233204 -2.9285364 1.0198127 -2.099342 3.5149498 -1.7976888 -2.1659627 9.149603 1.6954513
believ 1.6819288 0.556579 -2.1358683 3.014974 -4.396134 -8.510521 -10.338304 6.102928 -7.5380735 5.071603 -0.6243163 -0.027062658 9.39104 -1.184386 3.0705042 -4.4827375 1.2920581 -3.765552 2.1552494 0.50787705
march -1.3575948 0.6424263 1.3233198 1.9941075 5.7790427 -4.672367 1.8984528 -0.9746883 -6.3403 -3.2321184 3.1867304 -2.674906 -7.6077952 -7.2654767 6.6867905 -9.720216 2.714029 -4.4968395 3.1952617 -5.7350826
manag -2.0720186 0.91894037 2.5483692 7.679661 -1.5019459 -4.697174 7.67842 -2.440038 -2.1502314 3.0156984 -6.8696413 -7.601952 0.5264597 -3.0439246 9.162393 -9.480738 2.4319093 -3.1076002 1.5799081 -8.652575
clear 6.8545938 -1.066985 5.7675447 -6.4898744 -5.094318 4.138064 1.023786 -1.0904238 -7.4029484 0.5682901 -2.1931875 -7.1025925 0.6499811 0.18683758 2.30323 -3.0592575 -6.4892178 -4.2625375 -2.294013 3.5001488
human -0.6549403 8.862706 -5.4439 1.2383741 1.3001949 -1.3688871 -5.849613 2.2038274 -1.258484 -10.217557 -6.3356447 8.594861 2.13425 1.5400147 -2.3166957 1.1445186 4.426296 3.128347 3.250628 3.2515564
question 8.928424 -0.44488356 -3.7871742 -0.31456542 1.7402531 -4.3861446 -5.6369543 0.3390873 1.3703989 -6.649173 0.63239086 2.1670036 3.5856035 4.2675905 9.713705 6.7522674 6.285607 -5.5092773 -8.401419 0.144568
april 0.023429591 0.62343514 3.8503504 0.009301268 -2.1552703 2.3404093 4.406006 1.800798 9.041971 5.1618958 8.927297 1.0213536 -10.049724 -0.3331452 3.9506958 -0.6189277 2.6442006 1.8538395 3.3770115 -9.152946
role 6.2114353 -0.2981644 -0.48472244 2.2077646 -6.4506183 -4.321089 -4.550195 -11.305736 -0.5938571 3.6856585 5.0147123 1.8389692 7.466446 -5.5714064 5.3865185 -3.5584135 4.214069 4.1151376 1.1364204 5.402531
presidenti 1.5824403 -10.793677 7.467027 2.7502286 -3.3339622 5.200239 -1.7179656 1.5766586 0.73083025 -2.379617 -1.5196649 1.7000898 -0.07415958 -9.07465 -2.2911003 -10.514358 -0.58586437 -0.5134089 -2.9943492 -1.5571855
android 2.5280895 6.9678364 -1.1947795 3.901994 -3.4934247 -6.551929 3.637045 3.5024135 -7.4593472 3.9014678 -0.4022141 -0.93136823 -0.91456836 -9.960499 2.3032465 -3.176671 -4.9125743 3.6104345 -2.3709748 -1.161736
earli 0.9817573 8.7315235 -5.0068126 -4.669319 1.7370731 0.80357546 -5.2842345 1.2475173 -3.594526 0.23299651 -4.3030243 9.312584 7.8324256 4.5002418 1.6795598 0.8076571 -1.6972151 1.8882406 -4.02494 6.1747947
victori -6.9918213 4.0720325 -2.0330336 -6.04745 -1.8772136 7.073229 -5.99321 1.5173349 1.3941852 -0.8723576 1.2447644 -4.217783 -3.491225 1.5523698 4.344824 -2.4232383 -4.2429137 0.6307876 -6.013645 -1.6313264
tom -1.7870407 -4.1079407 -2.7391152 -7.96667 4.068434 -0.27514264 5.7660766 7.9079604 5.468701 -3.7115335 -9.181937 -6.0040464 1.7841462 -2.0562837 0.23991606 -4.6022177 -5.0291553 1.4628693 3.1649358 -4.081321
huawei -4.4200983 9.72477 -2.0924766 2.601395 -5.7280626 -2.427932 -7.561902 4.8188353 -4.060666 -0.4079685 -8.705708 -2.0475917 -3.4170647 -9.781656 0.96593815 3.6558268 -6.364579 3.889824 3.1521027 -1.0283266
health -5.626953 -0.9607919 -1.0432183 4.16461 4.1757226 -7.602347 -5.7283077 2.9733627 4.9766355 -7.1660914 -4.541795 2.4985642 2.7400851 0.070393786 -2.4217806 0.20354746 6.6439843 -0.2701278 -0.15810096 -0.46793354
latest 5.8451552 3.510207 -2.9381113 4.191602 -0.4323084 -6.305032 3.4522786 -0.53637046 -10.131861 1.5027246 1.1148171 2.7245557 -0.25924647 -4.9808683 11.492596 1.8351808 -3.8413956 9.914684 2.1425302 1.0968455
invest 3.2400682 5.1363235 5.8396473 12.890274 0.46091864 -6.543741 3.3141851 6.9072924 -2.6203606 -4.432154 -1.3654104 0.36510262 -4.6611614 -1.6296972 3.9111087 -2.9095097 3.5900283 -6.093745 -6.758167 -2.9882545
post -0.37049344 -6.25746 2.277116 1.4345287 -9.704811 1.2902564 2.7816613 0.8636742 2.9150546 0.32644603 11.290473 -2.2258773 -8.716064 2.5118582 -2.5612538 4.6831694 -1.9865232 -2.0022385 6.0787086 4.248459
comment -0.24499837 9.056838 -3.647349 -5.283216 -0.08519394 7.533848 5.1409473 -3.0835788 3.1313095 2.4252799 1.7158822 0.18627004 -4.3786507 2.7345295 8.080308 -6.511004 -8.107366 0.08219277 5.1552124 7.995014
career -11.93901 -5.4025216 11.54736 -0.7982054 0.27251077 -3.8538404 -6.5313563 1.3856747 1.2001175 -5.434145 3.5873148 1.2426504 0.8870397 0.7181555 7.9389386 4.2410483 -0.15976934 -1.3335125 2.8919759 1.1405803
mean -1.3802873 2.507128 0.20662056 6.7331085 3.470902 -1.5725912 -3.9709308 4.1779246 4.0264726 -4.2490234 1.9223177 4.1136365 8.073914 -14.260778 9.180231 2.1342924 -1.9950132 -1.3903242 -2.66572 2.3220775
bar 4.68759 1.5625253 -3.1092408 -3.6290338 -1.2012436 0.54810816 -7.0997124 6.6976547 -7.693468 0.2632927 3.1488364 -7.9695597 11.489828 -1.3290848 2.8830986 -3.615101 -0.20006277 1.5204812 -2.3829398 -1.9199779
fan -1.0864662 0.026695652 0.9464796 -8.400654 -2.2192113 7.882431 -0.52230126 0.6288352 -2.7390487 5.3783503 -1.9924179 0.3163052 -4.879573 9.358662 1.2627693 -4.9696407 1.343484 -0.54220194 1.5057725 -9.347368
chanc -1.4609686 1.8830534 -3.98124 4.3762927 5.786184 4.579795 2.9038727 -0.7409265 -3.0435493 -1.4742554 0.17353074 9.467063 -2.395258 0.4368094 -0.2567376 -7.52268 3.8052323 0.5085669 -9.950325 -2.6332278
step 2.8209317 -1.1507515 -4.7719193 -2.1916285 3.052854 -2.505515 5.157296 0.5701862 1.4831928 1.931523 -4.427777 -10.440408 6.9863043 1.2437506 1.8116819 0.0840173 5.183222 0.8567445 -5.172272 -11.163204
result 0.4332881 3.3463342 -3.386423 -2.3353848 2.1503687 -5.3344717 2.8352165 -3.348061 9.583303 -0.10479168 7.014564 -0.40724394 -8.519707 -4.9763837 -10.524488 1.344416 4.3913875 1.725315 0.13797633 1.2636545
level -3.5024881 2.2416425 -0.8322129 5.846783 0.22382282 6.3704247 -4.264647 -7.462602 -11.70958 5.708417 1.0581318 0.52678937 -0.09596873 3.7717721 -3.355593 -0.811955 2.591091 -0.59708035 -4.2323594 1.2601115
must -2.7285762 -2.996502 5.3391256 -4.1805363 -3.8838315 -2.1522102 3.2743554 -6.5037966 -3.255874 6.5985966 -2.217546 -0.73461515 -2.7738054 4.988407 -6.0843024 9.412593 2.8695645 -1.8264616 2.8085742 -4.5768304
determin -1.022657 5.289869 -0.50077426 -15.962884 -4.182291 -4.9487286 -7.8108864 -2.0091953 1.877833 3.5116801 1.0808659 -6.012965 -1.6897757 2.7698746 4.3299456 -0.7523512 0.32697564 2.9187331 -1.7695616 -5.0922976
leav -0.41608098 -2.665326 7.7949033 6.637851 -0.96925664 -2.0943575 0.86193997 -6.0726433 5.7824173 4.8378816 4.5085955 3.4459636 7.5258613 -2.6616113 -0.47338387 -3.8260326 7.212277 9.273337 0.38694876 -0.7324785
immigr -6.267496 -2.7426288 2.8021975 -1.8465637 -3.8872473 1.4428109 -8.118672 7.3546443 -1.837529 -2.5361848 0.5641072 6.3441095 8.56576 -0.9987583 -3.7397127 -3.3229647 4.2355 -1.6943778 1.8777989 -5.01128
pack -0.8374944 0.91246027 4.613739 -3.7716746 -1.6803313 -9.789703 3.3924704 -0.022324381 -7.2708197 4.0041537 8.002842 -1.275773 -1.4199865 -7.591545 2.9441373 -11.047742 -3.9651234 -0.8218611 -0.6631062 2.3513532
drone 3.5364258 3.7909274 -0.16908795 -0.49346653 -3.5864081 0.5922674 -5.146911 1.6899443 4.2773356 2.163152 7.335694 -5.807067 6.015688 4.3448763 -4.0844803 -6.119928 2.7140074 -7.9535513 -8.880987 6.3522444
athlet 1.6546427 1.299618 -4.851505 4.7485547 1.5074235 8.647438 -5.281317 -4.5304704 -7.132496 0.06516385 2.9107985 5.951796 -8.184049 0.029070647 -1.7925284 -5.8576145 0.52834857 -3.4717486 2.4761474 5.7604527
worker 2.6989918 4.065809 2.1222823 -7.3603325 4.1268034 -2.586678 -5.1501117 -2.58155 -7.571984 6.479019 6.231285 -1.320043 -1.6463411 -1.9626443 -1.7524822 8.647118 -2.306036 1.7791629 7.481535 3.3423235
econom 4.455105 -4.3714523 4.929021 2.707325 -6.3112307 -8.13729 0.034163676 -0.21023086 -4.3272514 -2.7140217 -5.879711 -2.0978103 1.9662439 9.694068 -3.4350946 -1.9001706 6.0047045 -7.440234 -2.7329247 1.7828983
agent 3.083581 -9.89288 -7.483136 0.19552612 0.044224266 -0.4329224 -6.7081327 -2.6042223 -0.51840365 5.0452943 2.8055072 -0.099339016 -1.078457 -5.142948 -6.2062683 0.3057931 3.310668 -7.156959 -4.63516 -1.2581419
enough 3.3758037 -2.3063107 -6.0601077 -1.8707153 -7.137522 1.0905048 8.913216 6.11648 -4.8366146 -7.9944944 5.2508416 -0.50942147 -0.31786245 0.29880965 -5.467367 5.87486 0.93049073 -1.7230711 0.6510428 -2.9252183
least 3.4589934 0.708087 1.3729429 -1.6641726 -7.02796 5.4078064 -0.75879407 2.9250174 3.611766 5.4408145 1.9799938 0.2520789 2.0563655 6.2923136 -9.838391 -4.312996 -1.5837331 2.7083375 -7.815821 4.924979
australia 4.081216 4.386231 1.7187737 -4.8094106 2.777149 5.453907 -0.4746272 2.7197342 -8.726701 -9.494843 1.1261735 -0.27206504 -3.2852976 6.9028187 3.0480113 1.7732255 3.948535 -2.6543493 -0.7240016 -4.2790275
uk 0.16455601 -2.6605396 7.210417 7.2030663 -6.7026877 1.046002 -1.0669558 -4.7896323 0.5968782 1.2003791 -6.2292247 4.361286 8.904222 0.9678142 -6.279905 6.52831 1.6419228 1.6715685 -5.0069547 6.3703957
stoke -2.6565385 -5.283104 -0.84592927 -8.138577 8.422186 -4.588714 7.4960623 -9.46912 2.8356435 -3.681442 0.0787019 -1.4508322 -3.931378 -1.9572291 2.8166342 -0.113252915 0.94883543 -5.3955374 -0.3992881 1.5303323
young -0.7845857 1.1897932 -2.9874136 -3.6053889 0.38694832 -0.4012474 -12.677604 8.821694 -5.1518316 3.2652624 1.0738335 3.0294793 4.4685764 0.01631163 -6.0025153 2.9877264 3.6140635 3.6274047 -0.5101929 -7.091142
thing -0.543495 3.3778667 -1.5161847 4.34826 -5.296165 -5.0606136 2.3991084 0.011902597 0.69718814 -5.501462 3.1445594 -2.4240751 2.0089285 0.43753278 0.97008044 -1.3570195 4.115794 -15.630018 -4.093314 3.1060734
offic -4.8494744 -8.49623 2.6744802 6.25282 8.064131 2.9024348 -2.617191 -2.349774 0.9953197 -1.4711677 -3.2911549 4.520812 6.3256464 -8.3315525 -6.982775 -0.23815688 1.9809237 7.5029407 4.611729 2.5537734
minut -9.241889 -3.2016928 -4.2573977 -2.4135644 2.6741905 5.037588 -3.1296477 -4.006082 -1.2783238 10.090703 6.417769 -0.53412235 6.7703505 6.768556 1.290876 3.5067396 -0.45185304 3.5068488 -4.2759466 0.30005395
leak 0.8187582 1.8899329 -5.6385393 3.2387145 4.9761653 5.41241 -0.3482935 2.071084 2.9435656 -4.82138 -1.0089146 11.100195 -7.6852 -6.026328 5.800327 -3.998802 -3.3123481 -4.9399996 1.4273028 4.150536
continu 1.0502905 -1.3416178 8.250989 -6.2604175 8.428047 -0.669971 6.63495 -7.78001 3.4496818 2.4009328 -1.9134065 -1.6146299 1.5969895 3.592861 -3.624988 -5.739655 4.359681 -4.464351 -0.92966115 0.672928
rate -2.392511 -4.966653 -3.1182144 -0.120503105 0.552466 6.882483 11.598434 1.2061095 -1.6460265 0.21883748 0.01715434 -1.3037437 -7.2928276 6.666069 -2.7054906 -1.8447 1.0096462 -4.84648 -3.831818 -7.0897765
case 2.8399346 2.637658 4.103698 3.8724475 -4.5986753 3.977521 -2.2960193 -3.063944 -3.9980977 -2.4148614 -2.4294946 -2.9089644 -7.674471 -4.55948 -10.40907 1.5294181 0.75129664 9.813372 7.1869597 1.2150414
key -0.057344273 0.27269164 0.87631685 -4.5194407 -7.188193 -9.105232 3.0648353 -2.977336 0.51216334 2.8149831 -4.5698547 5.364412 10.895988 -6.299853 6.2338667 -0.16268395 -1.7571477 0.0592259 -2.6269422 0.2501024
men -6.0716944 -0.8565172 0.23626596 -1.7025241 0.9802141 3.803897 -6.814418 9.178861 1.0105282 4.8317895 8.834644 2.7174752 3.0236566 0.5558067 3.3933833 3.3771431 -0.24733594 5.610839 -0.9765455 -7.1865816
employe 2.0776436 -7.5296063 -5.1757183 4.3802495 -6.6997995 -4.7824683 -8.175631 -0.69441026 2.1427732 -3.538734 0.6864186 -7.725281 0.30512407 0.6456674 5.2017484 3.6191192 2.5143104 -4.6071467 4.8640428 2.7126796
share 4.565936 2.2368624 -7.038254 -1.1191294 1.9161272 -7.3755965 -2.3386092 -5.6699414 5.6625237 3.082901 -0.86363065 0.16188611 -6.323126 -3.8476303 -4.0897384 -2.8683517 8.6830435 1.0211916 1.4710923 -5.605753
replac 7.8090873 14.094157 8.018593 -2.1578135 -2.138051 8.440201 -2.2337935 1.3320087 1.0953547 -2.955317 -0.76361185 -3.9009216 -1.6787362 -0.9145283 0.35051215 -0.27056476 3.426472 4.4100227 4.189148 -5.3608074
find 2.7783806 2.7257273 -4.451198 8.392528 -2.3754776 3.0509567 -2.1204703 -0.1820846 5.2973523 6.6085825 -3.1710324 -0.6056789 -4.5642433 4.392032 7.1727467 0.928248 0.24249451 -1.0497271 -6.000293 -2.157599
chang -3.8521209 3.3599594 -7.324096 -2.0259187 2.4725118 5.074291 -2.0346134 8.374464 -4.342103 -5.621156 4.2908034 3.8416278 0.18612461 0.54796773 0.8939247 0.5428048 -0.8210722 0.82520014 -5.3359075 -3.1815443
three -7.7818804 -4.1051874 4.396324 -3.7467709 -3.307424 5.345902 -1.3075125 4.0400567 -6.8801513 3.4277682 -1.5361575 2.389635 -0.89580053 0.62325144 -7.4380555 -2.7766552 -5.8014736 3.5697684 2.3258803 0.24205415
race -0.32135224 -4.9897485 -6.999662 -8.302764 -4.7790403 -1.8679278 5.4925942 -2.4041493 5.9036217 0.21214077 -1.9756037 -1.2784709 -3.8857524 -7.662414 -5.0395083 -6.9193554 -1.6414775 -4.811883 2.49667 -1.7551327
issu 9.055422 1.5989499 -6.585474 2.5584817 -7.4630446 5.258085 6.9085836 2.7540953 2.0150504 -4.523536 -2.6948702 -4.925859 -7.368753 1.2760806 1.508816 -0.8631966 -2.3501635 -3.0944073 -1.5008963 -0.18277739
ever -5.342409 -3.3050637 -1.9864713 -9.9025345 3.8395276 4.2904835 1.0566466 -9.866041 0.19052431 -3.3565543 -4.5173707 6.594931 -2.8089862 -3.6413252 2.7097158 5.7767525 -1.8726965 -0.86671585 1.554767 0.44305143
agenc 3.434205 -1.9607202 2.8775828 -7.6730614 3.9168298 2.09482 5.6731815 1.9590755 5.831387 -3.1262937 1.3960023 6.9846473 1.682979 3.680704 1.9659195 0.40349248 -1.0897152 -8.266372 -0.6287182 4.0710692
mark -8.6318655 -0.5144122 1.4771656 -9.1143675 -5.294393 -0.31196326 3.4547923 -6.817241 -4.9641094 -2.7314932 4.8048253 -2.16863 3.414324 5.337094 4.0537567 -6.7583804 2.506251 -2.1873176 2.8938677 -1.5322301
ago -5.675908 0.669505 8.693518 -4.837138 5.494465 0.96809167 -0.04726424 -2.9212954 5.1946898 2.219389 2.0265403 -6.9497814 -4.840639 0.5416029 5.473091 -1.0291641 -4.5849223 -0.5934998 -10.999145 1.3967706
smartphon -5.337954 -1.8291886 -3.6766307 1.0055758 4.188019 1.2290426 5.071919 7.851613 -7.1016192 -6.3802366 -0.12628941 10.10095 5.3649116 1.2512484 -2.219021 6.8111725 -3.7853925 1.2598242 -3.4533944 3.9891956
martin -4.5720396 2.139149 -0.5826937 4.201891 6.543295 1.1287426 9.161194 -4.462951 3.101823 -4.1093144 3.889097 -12.045577 0.90245223 -2.4179595 -0.8212952 9.966521 2.7006714 0.12702782 -2.8066523 -2.1088428
spot -9.340562 7.3659325 -1.1542555 -6.237874 0.86310756 -0.33636636 -3.4121244 -5.821455 -7.7840557 4.681676 2.6593041 -6.855875 6.717452 -0.09470876 -3.2779818 -6.12291 -0.2882206 1.9879261 -3.0435662 1.5208473
past -6.876511 3.2817812 -2.749175 -4.2128825 -7.2702208 1.4536258 0.29288903 -0.46869206 5.661425 -2.6870706 -0.08214508 -4.936035 2.548055 -4.1587543 3.3847992 -8.521766 -3.694052 7.995365 -4.864549 -0.4373728
coverag -9.2456665 -4.5369406 -2.5103252 0.5368621 4.279663 -1.5287198 -16.133617 3.4927492 2.45683 -1.5740976 -2.515414 4.506131 2.495315 -0.0160219 3.0725064 -2.4680154 1.3052801 1.4667693 -1.8628705 1.1590409
servic 2.7639935 1.2392713 -5.174587 3.7648723 -4.42858 3.5871294 1.8161042 6.1657157 -0.08274727 -7.537786 -9.968483 0.11068484 3.00831 -3.6251042 -1.4705799 -4.394844 -3.8708942 6.2261295 3.706036 2.41716
event -5.6303716 4.3807197 -4.1732635 -3.4188771 3.217978 -0.38327566 0.93065304 -1.8783762 -4.1519437 -2.3697278 0.34492615 3.5444221 -4.2384214 0.86988884 3.7875311 -7.8137946 -1.2052798 -1.3794357 -1.5627564 1.1101773
la -0.7806714 -0.46970907 4.169478 -4.675869 -0.64888823 0.085105985 1.3479275 -3.7169132 -9.351444 8.351339e-05 3.46223 -1.0850401 6.567137 -11.594477 2.8602426 8.064898 -0.49843937 0.47433478 4.386537 -5.035375
congress 0.12116243 1.7641412 -2.415999 -4.242425 3.4623253 6.508078 3.9634693 2.6626642 -0.6505617 -2.1927223 1.4653183 7.449353 -4.0000362 -9.415889 1.2137694 -6.93018 -6.0658402 5.7865133 -4.160893 -0.4472414
decad -8.3135805 4.1532674 9.019811 -2.240809 -1.4996572 5.8426356 -5.928334 3.5090494 2.5117857 3.7576616 5.8326974 -1.837521 -6.71093 -1.4210794 0.63752425 1.9739836 -3.4923637 -2.069425 -9.793882 -3.415327
india 1.5308089 -6.764058 5.6133347 6.4065356 3.599942 -3.1503718 -0.8717105 -4.127078 -5.9361377 10.012981 -3.5799406 -7.3071923 -3.7620838 8.553451 -3.4408796 -3.602595 -0.7931625 2.1779406 1.5002903 5.8950186
display -1.1469932 8.256241 2.4188805 5.322442 -3.0986905 3.0953252 -0.65680593 1.2991699 -8.269516 7.964899 -1.3829807 8.9957485 5.153416 -5.932811 4.766354 0.99586034 -3.8810756 -0.33963096 1.1067379 -0.60205764
perez 1.9597834 -6.128653 -2.634188 -8.17096 6.992508 -7.5696387 3.6866808 -0.8968801 -1.9577897 -4.1103234 -6.915752 -5.908697 4.436648 -1.8847382 -0.9646502 -2.5712388 2.039902 1.8292439 1.1202874 -3.4344409
allow -4.444325 -3.0171728 11.442349 7.8281436 2.5117378 2.8095448 4.5206017 7.5404677 2.9427948 -1.0468833 0.694522 -6.1601653 7.3606725 -0.20703302 -3.9447854 -1.7569754 2.5280662 4.7777042 -0.54670477 -4.840958
great 8.259591 5.04311 -0.73266155 4.2937274 -5.215982 6.7154865 0.72193146 -2.6031902 3.07434 3.3066046 8.205036 -4.190061 -0.15419392 1.4102398 0.5447129 1.7743402 2.3558187 -2.0048769 -4.483314 1.3907042
benefit 2.6354392 -7.163041 8.758609 9.867111 -0.5889043 -1.0482088 2.0397663 4.503608 -8.330383 1.366123 -1.3663063 0.92170435 -0.85663974 11.315851 -3.631246 4.249336 4.166994 -4.6825776 5.8043737 0.6826849
wall 3.071509 1.9292566 5.126389 4.652658 -5.8358126 0.47683465 -0.42883626 0.37779954 3.801122 4.117284 -3.471298 0.36553726 6.921046 -4.1690116 9.709535 -5.5103383 4.7111435 -0.2466597 -4.67297 -10.444118
threaten 2.287609 4.425046 2.986398 -1.7541705 2.8205588 -5.5638895 -10.307705 -0.42261907 3.226888 -8.063702 -3.9698021 -4.931285 2.387682 -2.6889257 -0.010609885 7.764636 3.9212763 5.2632065 -4.1065235 1.0833375
ceo -2.7274165 -9.417228 -6.674393 8.865805 1.590897 -8.398576 0.6169425 7.983494 1.3108326 -3.9784753 3.4952474 4.2226686 -6.3568707 1.7460214 -3.654866 -4.543915 2.537774 -3.567434 0.58297753 2.9687705
debt -2.300009 5.3177824 3.8815684 1.0383317 -4.8023977 -9.498154 4.3155136 -0.3939002 6.4777203 -3.8035948 0.7461562 -8.413368 0.9953586 1.5593858 5.733489 -0.61426854 -2.7044518 3.1967137 -2.7107368 6.481644
championship 0.83562964 -0.4973893 -7.3013163 -1.4491379 6.7412148 5.0433607 0.106250286 -4.3535433 6.3374987 4.313532 -1.525589 8.835249 -2.6497636 -1.902958 1.8167213 7.43527 2.6439817 -0.8615261 -7.6305127 -4.925625
everyon -1.382486 3.8791835 6.855197 0.71945906 1.0423747 -3.2944057 4.447374 4.130193 -5.894851 5.846855 -0.6064409 -3.8759062 -6.040867 0.6748855 4.47218 8.627331 -7.512862 6.947027 6.2251673 -1.1439092
co -3.0537322 0.24464794 -0.28328654 9.760103 -3.6972907 -5.910625 -4.1432924 14.963626 3.5022678 -4.272763 -0.5853856 -0.3362431 0.9844799 1.612283 -2.7765427 4.005067 0.94727033 5.665149 7.0085654 -0.2784488
china 1.4009105 2.303221 6.669539 -2.13484 -7.251508 -5.0787807 1.7370105 -0.30839658 0.17946629 -7.152 -6.1085424 -2.1473808 5.938771 1.2635512 -6.255702 4.431529 5.6406517 -7.510132 4.303152 -0.4054446
third -11.721436 -3.5608566 -5.8360996 -3.992484 -5.8961887 -0.61940217 -4.3664136 3.7070107 -4.939486 1.198024 3.8540275 0.5133895 8.375846 0.53362286 -1.9038525 0.29625335 -3.4428291 3.2117546 -1.7833328 1.2080324
figur -3.3050478 -4.7760553 1.9084805 1.110485 -2.4345374 -4.9662557 4.553046 -2.1596832 -0.3573656 -5.3447423 1.6580573 3.3025331 6.9082003 -10.135064 0.90489155 3.724015 -1.6013498 2.4770203 1.8302112 3.496722
social -5.3120127 -1.0156779 2.4298072 -2.8650103 0.27079472 2.533892 -0.49031895 1.9103943 -0.530576 -5.68205 -10.953548 3.5968575 1.4764594 1.6183108 9.662024 -3.0069757 -4.919759 -0.037427157 4.945099 0.7531778
footbal -1.061835 -1.1135855 5.0851827 -1.1595281 -5.653443 -10.178097 1.5068312 3.9735193 3.4218047 5.320735 -5.555971 -1.8675996 -7.431569 1.6227999 3.776129 4.867354 -6.886221 1.1018567 9.469395 2.3672853
known 0.67239016 1.428695 -0.24878424 -3.793832 -9.078426 2.90548 -5.6969624 -9.793398 -4.786355 -3.4991615 7.092531 1.5443156 -1.6275952 -6.4781046 8.081689 -2.736896 2.5875244 -1.2926087 -0.18893006 -0.873455
copeland -1.5503359 -3.9011853 0.9018169 -6.466016 0.63287103 -6.6436114 3.9294376 -3.2120981 12.392384 1.876029 -3.5486445 2.8360708 -1.2338923 -1.7394003 -7.903136 -5.6913867 4.735407 4.8893757 1.642095 -2.5392797
love 7.695851 4.051014 -1.8190463 -3.6194396 -6.1432467 -6.9594045 -5.7782555 6.7668624 2.9078526 -1.4552621 -1.1730657 5.4270854 1.5283482 -0.6144654 -3.1982896 -2.4190857 3.6104376 4.6312604 -8.9039755 -2.5918608
featur -2.626288 3.729368 -0.09814535 3.6984522 -5.3475223 -2.0664914 4.9676366 -4.041425 2.4794807 -1.457955 -10.862092 0.6987552 8.689742 -4.580741 7.7199764 1.3161457 0.81567335 2.0449164 1.1259843 -4.1404023
loss 2.7661998 1.5863622 -0.47736838 -7.2129073 -3.1024125 -8.176672 -4.437524 6.5235963 7.203191 -1.4134703 2.5203333 -2.5777378 -3.0145767 -1.9560167 4.2872577 -6.357603 -2.0821025 -4.435162 -3.5917242 0.9885515
commentari -9.048692 1.9052649 -2.276573 -3.3331156 5.9584355 -1.155797 -7.686229 0.97287166 2.1599784 -3.9164472 -2.4143083 1.1153694 -4.066669 3.333514 8.21761 -0.45253748 3.538216 -5.2691097 2.704629 -5.207483
champion 0.30569348 1.9403964 -7.762552 6.825023 -3.938674 4.7737103 -0.8219834 1.7545844 -2.1907473 6.847019 2.7280889 6.372944 -10.256581 2.8391836 2.4911678 0.24397756 -5.195002 4.579034 4.17383 3.778541
arriv -5.867766 -6.320005 -1.6868701 -3.6915452 0.76286095 7.056641 -0.08010343 -8.271939 4.5045743 5.704906 10.886095 4.0599284 6.6972203 1.6986984 3.6179905 4.020301 -0.33059743 -4.7207084 0.4799814 6.1534734
tori 3.1085944 -0.108785346 -11.207611 -9.838624 -1.8072838 -2.7010572 7.0104203 -0.77612555 5.296585 -9.757701 2.4078395 -0.7965408 2.2303047 -2.7127964 0.0071317237 -1.448257 0.728919 3.2181227 1.6847587 1.6125555
south -2.9660308 8.160562 5.358242 -4.5794916 5.0636673 7.9266315 -6.7151504 0.7728732 0.87132806 0.27882382 -3.194738 -0.4974485 6.9574075 -5.205291 -2.14128 -2.182089 0.011354309 -7.9645324 -9.610915 -1.343503
milan -1.7488462 -3.060981 -3.7515707 -1.5837932 2.976528 -2.781523 0.7792399 4.3511925 -2.5936987 -1.3999962 0.54850245 -1.5407515 -7.8751802 1.2649658 -0.32823697 6.5905695 4.1098547 3.9209406 -4.8899207 -12.909573
k 5.1030426 -2.72051 -1.7618289 -1.3882263 0.69704926 2.3565736 11.319071 -2.1348393 -8.257983 -4.4068255 5.2211204 10.183054 6.9009666 -1.119842 3.5699928 -0.79813313 1.2954072 1.9494907 6.2718954 2.5191407
vehicl -6.846648 -9.390084 -0.22408104 1.1784463 0.40675655 4.3605595 2.4478018 4.6596537 -4.1064663 1.8496364 0.5795784 -2.479154 -4.158537 -0.7868639 -9.525612 -3.9395685 -0.77328753 -6.3242025 3.3894405 -4.096594
imgur 1.766168 4.7169495 -3.012188 0.9555613 0.80061114 -6.8620663 2.137284 -3.0093243 -8.531892 -3.071 -3.31924 -5.142481 -3.8287225 1.4287753 0.28287673 -7.442894 1.3408382 -11.893869 5.509684 4.9675817
orlean 4.254463 -6.506051 0.2787796 -1.6657323 9.37713 -3.7851846 1.0882794 3.504314 6.3637247 1.7052242 -5.2508044 -1.7891889 2.1820958 -7.4515114 1.372005 -3.1332395 -3.7162633 -0.82256776 -4.009582 1.1202998
side -8.726422 -4.311312 -2.453629 8.753903 2.2461014 0.8138424 -6.719098 -4.706553 -1.1385546 7.260266 -3.3495083 1.5713402 -0.72227454 0.18407305 8.177603 0.57969254 -2.5669513 -0.4196187 6.6179347 3.6243968
low 1.4597392 -7.6876316 4.268158 -4.5138326 -5.379101 -2.777581 8.201913 -1.2795466 -3.9117818 7.849964 -1.837507 1.2227625 0.19788668 -0.5311719 2.2452497 -4.54879 -0.7563071 -12.031138 -4.916313 -6.4664354
held 6.6962757 -6.7027917 6.2628393 0.25518942 -4.6459265 2.8046918 4.516625 -12.353618 7.342957 -3.3719878 -2.9043746 -0.42228866 -3.2490344 1.4961555 -2.5101469 -0.0050665513 2.1156206 1.2462339 2.0699492 8.1005745
turn 2.4286494 4.955296 -0.35856563 -10.738917 0.65302455 -4.248028 -0.31210232 -3.4669137 -6.706837 -0.44029936 5.809465 -3.8805153 2.5517042 3.9889882 -2.6404245 1.3433272 1.4481955 -1.9796462 -6.1677012 2.7401006
captain 0.60706586 -3.567517 -1.2418326 -4.213961 0.5136926 -8.37757 -1.4389321 8.923475 -1.895081 7.1282425 -5.666827 9.018084 6.5660357 1.734389 2.4097831 -3.5205927 0.68948597 -4.410559 2.122611 -5.709286
join 2.775765 -1.7392921 -3.277301 -9.111515 -4.4180717 3.1468332 -3.33894 -8.245732 0.98146874 -0.98736626 -12.10569 -0.3857065 -5.6404753 -0.57692736 5.448931 -2.9022913 -1.2838446 2.084956 -1.823415 -3.8347144
inaugur 2.976538 -8.107037 8.278997 -3.9785404 1.3208936 5.6937127 -2.9026096 -0.43324426 -2.8138928 5.5970063 -4.5357833 2.9957542 -0.61775553 -3.989425 2.922763 -7.89029 -5.837866 -2.0071728 -0.070208736 1.0426216
think -4.5138955 5.7761297 -3.005597 4.6896677 -3.3312001 2.6338222 -9.771264 -5.853489 3.954538 1.1391017 -4.2380877 -1.4088305 -5.208423 -8.983554 2.484176 -4.2747836 -0.36214492 5.3830266 -2.9402578 -0.32977858
p 1.494009 10.926806 0.17451464 -3.8377223 -9.336122 -5.6782746 0.25651672 3.4802465 -1.2194961 -2.7761798 -5.1513867 1.0471121 -0.4630832 -4.6822457 2.6521387 2.9948184 -5.923904 6.524258 0.6601747 2.1066732
univers -4.0398784 -5.5971146 4.2433786 2.358839 3.9988062 7.623405 -0.33617842 -7.706081 0.7058226 -10.065495 1.5730284 -7.3189664 -2.5650654 1.3629296 -3.4233665 -0.30543527 1.9371691 -4.6058135 2.0133715 8.023201
usual -3.3681843 -0.32163155 -6.248832 5.6226788 -0.44531798 -3.893704 5.886393 8.724672 4.573346 3.4650757 0.35255095 -6.0860686 0.5972041 -0.34099367 7.6064167 -8.123984 0.32160342 -4.888261 2.132537 -8.145759
shock -5.6305447 -5.99157 -5.873719 7.786663 -6.53802 2.2349987 3.7180076 -2.7288945 6.6792893 -7.9363613 -0.8014224 2.2204301 -3.839322 1.6226875 1.0533669 -3.8773973 4.835712 7.740374 -2.558568 -2.4925218
critic 4.713905 -0.74835664 -3.9597049 -2.657895 1.517675 2.0272503 0.45866302 7.440513 -0.32049057 -10.877297 -4.0229425 0.33622974 2.4043138 -2.436818 5.9050083 -8.003467 -1.5294745 7.4575734 -0.51852 -1.4820203
alleg 10.318945 5.2517796 1.3169781 3.7129004 6.5072207 1.9879478 -3.5739632 1.2867932 5.8967996 -1.9159753 1.6811616 3.2983587 -2.5646348 1.6819909 6.9742084 2.2122333 -0.07436226 5.2842693 -3.5450368 6.568524
attend -0.46990028 -4.9286575 2.9440367 -1.382243 -2.9596329 1.0685841 -5.0981708 -0.42915052 3.031361 0.5993411 2.6459692 7.334159 -1.241876 -1.2925831 6.4326816 -2.7529967 -2.5032885 2.6812642 -3.8212886 3.0664623
g -0.45713705 6.491454 -3.1348026 -1.3047088 -5.147825 2.7764094 0.17202388 2.2558806 -1.0000762 3.2408855 -7.442404 -0.47592002 3.9175494 -10.091634 2.7559633 -1.7220207 -6.1666346 3.9733756 -1.1638719 -3.956139
night -4.3878803 -5.306624 -6.5804167 -2.5639946 9.846431 3.2340784 -0.7955824 -3.1335802 -3.6472669 -3.730754 4.7905455 1.5005727 0.66074103 1.8787439 -0.5034129 -10.968303 1.858486 7.763502 -2.230881 3.3054876
beat 2.5314777 2.0157962 -4.7887964 0.4839437 0.82680196 9.458054 0.062385317 1.3896273 -3.5731018 -7.1660285 0.17175633 -3.7653027 5.685352 4.2373886 14.96668 -3.3008254 -2.9630787 6.4903917 -1.0396717 1.6463817
tottenham -3.294099 1.5171896 -2.6401508 -2.1242082 6.2224865 -0.21908103 -1.8825023 -6.2970533 9.554216 1.4106311 -4.3907013 -1.4059237 7.287752 -1.9285551 7.9792995 4.0815444 -0.92734 2.081213 8.918788 4.756676
sign 1.136713 0.27604175 6.368313 0.47014764 -2.4328885 12.322199 -6.0154533 6.5144167 -5.758369 2.2616646 -4.4009013 6.4471807 3.1916792 -0.17010678 -9.875322 1.0548813 -4.7162266 0.64507914 -0.127478 3.9936323
special 2.3942568 0.64683896 5.514633 -1.062411 -0.12131528 -6.096545 -0.5761095 9.635526 3.8091955 9.011193 -0.9972441 6.819223 1.4219517 1.0202488 -1.7193987 1.3037624 -2.6108422 -10.802382 -0.7500484 0.9970115
futur -7.0894485 5.0564623 -3.6522498 2.9465055 -6.3336883 0.14637603 -9.031472 -4.147644 5.844928 2.5256102 -3.4511003 -0.26328874 -0.5247597 -3.7621083 2.2366343 -8.46214 4.5529737 5.5745506 1.5992953 -4.864977
unlik 2.4224596 -9.364071 0.96689385 13.782814 -1.0414331 1.0706598 4.0603456 7.68884 3.736602 -1.0749469 0.67570066 4.4107776 -1.4579027 -0.72510403 -2.743034 -1.035983 0.47441754 2.3951433 -5.529652 0.886863
never 2.5363817 2.3960638 -4.7205443 6.053392 -1.5791103 5.914661 -4.2518215 -3.023709 1.9440298 -0.5237086 1.9202615 0.7686993 -4.8497086 3.0855021 0.5965609 -0.6161407 1.6113702 -10.87353 -7.034341 5.6805506
brand -4.0962567 6.9348073 2.482729 4.079013 4.896994 -5.1253476 -8.907126 -0.33256382 -6.8941092 1.5735986 -3.934012 -2.4166086 -3.9829042 -2.5572793 -10.083252 -1.9687161 4.980072 1.9386876 -1.608429 -2.0853827
radio -10.212307 -0.1310052 -3.706198 -4.311972 5.197828 1.6452451 -5.360906 -2.6812227 9.409639 -5.1587186 -2.9585543 -2.8161674 2.7171292 6.5504627 2.516142 0.8919638 2.531044 -4.2559547 0.79919165 3.2800105
order -8.507018 0.14577368 4.9876895 4.514108 -1.3515043 0.33810365 10.641776 -0.70038074 -7.3958154 0.38780373 2.7443995 -4.797654 -2.434347 -1.7610106 -3.0412946 2.5048985 -3.9726343 7.022689 -2.1714692 -1.0671684
barcelona -0.616301 3.631975 -0.046064615 -2.2440424 6.7020555 3.9265914 1.8646867 5.2224584 -0.16924228 -3.907053 -4.314734 3.0332265 -3.9738004 -8.899467 3.1556423 -1.1072698 -8.994153 6.028609 -1.7779924 1.9240435
derbi -10.039156 4.0819364 -3.580113 -9.311748 7.0940905 -3.87618 -2.4693825 5.617511 2.1250913 -2.4531274 -5.778946 0.23916401 -9.181192 2.7473876 -4.3001356 -2.6800609 -3.5022764 -0.9157149 6.484774 0.32526276
decis -6.0954275 4.4704847 4.052888 5.192321 -5.1693826 -0.9235775 -0.010552029 -2.294998 6.774531 -1.9977666 -0.057799455 4.78399 7.329706 3.0496655 1.9685569 1.607734 3.6620343 4.2178173 -5.520302 2.2318244
drug -4.981223 4.8235426 3.2550929 -2.0691502 -4.942028 -1.2627217 -5.08053 -1.9839842 -4.622541 -3.3939223 -1.3147359 7.435781 6.5081377 -2.79771 -0.98841363 -3.3836555 4.004567 0.15081008 13.215818 0.88043606
forward -1.6222761 4.0541162 -2.6689956 1.0689961 9.367156 -2.977472 7.3970613 4.980643 3.0808918 -0.5709951 -0.32391435 -9.477275 0.09995475 2.8380778 2.7681017 4.1917686 0.14130501 -1.4913876 -6.2806473 -4.34819
european 0.8313959 2.0590303 0.9815493 -0.54115295 2.2509465 -7.8584914 4.29407 -0.9636433 6.481116 -2.0229714 4.0996237 3.7812998 13.537582 -2.2341948 5.8848577 -2.280861 6.054939 5.2398033 2.4011638 0.07228967
return -0.27633327 4.589648 -0.64322513 -1.1511773 7.493334 2.5955558 4.5793 2.6222398 -5.442999 2.471821 3.0678277 1.6086084 -7.7905574 -8.2431345 -7.17209 -4.04453 -8.123821 3.9878383 -4.8127 5.1621895
school -7.475234 2.4700882 3.6448245 0.05554234 4.0973377 7.336076 2.4207513 -3.5272994 -4.9156904 2.006817 9.488831 0.81108946 -2.5980165 -5.296862 -6.07115 -0.15662941 -2.2948954 -4.189468 4.5214496 4.0687094
hope 0.78639054 4.9165797 9.340867 -1.1065046 -3.8596582 0.08823498 -3.037114 4.372815 -2.9029756 3.783684 -5.172975 2.0352643 7.716974 -3.4114141 -12.3896475 -1.1599206 -2.627063 2.7755382 -0.20270747 4.2528296
host 1.8692844 1.3973976 -1.7564709 -1.7680296 2.678815 -0.9022509 -0.56914544 -13.525835 1.3089075 -3.1951814 -1.5182481 -2.194934 -2.46211 -2.1515281 7.9477434 6.012088 3.3498275 -4.5766916 3.531205 2.319684
enjoy 5.1854672 1.7396964 0.6639315 3.6751554 6.580222 -2.6549122 2.6435564 7.75203 0.2445375 8.470944 -9.625113 2.7914948 -5.5214744 4.016607 1.8552138 0.18162209 -2.8134036 -0.40929988 -4.7411947 -4.372835
citizen 7.0756316 -5.478205 3.240053 -1.6019603 -6.252872 -1.0750403 -0.59610724 -5.3905363 3.7867591 2.5016003 4.484952 -3.8545432 1.6449375 -1.8419511 -1.3118926 7.843825 0.3383228 3.3573074 -6.65415 2.716152
told -3.1353388 1.8875624 8.254883 -1.1868443 -5.0884285 -7.4344096 -0.47798312 -4.288185 -3.415016 -2.694073 -8.878799 -0.36918613 1.4985852 3.4802086 3.8314369 -9.275509 2.2561865 1.4061234 0.2038441 0.025108127
network -6.6250505 1.5138859 5.31663 2.5391345 4.620185 6.8654923 5.6740255 -0.034595013 5.881502 -6.2777095 -7.3821964 3.7011344 -1.5699228 -3.4013228 8.534684 -6.4908757 -3.551958 3.5293221 1.4890339 -0.44826892
prospect 2.854543 1.613524 -1.0890841 3.9196644 -2.5255094 -8.77703 -3.475691 6.5461173 -1.3296763 -7.304379 -1.8405699 -11.557776 2.1821954 2.3771415 5.218959 3.0032535 0.85493886 6.214806 -3.7839 -0.17138526
small -4.1169133 6.812651 -1.9708377 3.4278274 -5.4050593 -3.1494324 -0.58251053 -4.260431 -4.3332334 -4.87384 -3.2595925 5.152525 5.382827 1.9389924 5.6797094 10.664517 1.5885009 -4.193301 -5.630908 3.1876101
build -6.819432 -1.7192699 1.5778536 -7.624198 2.5238976 -7.8248825 -5.8307915 2.5601726 -2.2756672 -6.270499 2.746963 2.1498513 -5.2786694 -8.278397 2.5012906 1.0780247 1.9498105 -3.6723168 -1.840534 -7.1408353
sassuolo -3.1097836 2.170599 -7.2594833 -0.28506243 2.8947895 -6.214298 -0.9555058 0.37146944 -5.5698423 6.4314895 1.2520368 1.8889377 -4.1070795 2.1372173 2.8830771 5.265702 3.4256172 8.238 -3.3825643 -10.051011
domin 1.2922212 -3.7226777 8.36907 3.8484485 2.5033538 1.7052784 -2.414477 2.1897871 -1.425303 2.7767596 8.427381 -0.8246171 7.121613 -3.53257 1.1466923 -4.2204823 5.0121436 2.3614383 -2.1986206 -4.6028886
stay 3.0718937 5.051576 8.858258 -0.3592483 6.931497 -2.7079892 9.358549 -2.6586666 -0.43467295 -2.0557094 8.419425 2.6627345 -1.0185654 -0.62064815 -2.310997 -0.29592657 4.1322513 2.5960271 -7.399855 0.806952
establish 1.9368765 1.8757086 -0.27166733 -10.430784 4.8857336 -9.181408 1.3873639 -1.8625349 -8.556113 -4.1539755 -2.89038 -1.9986503 2.3284733 -5.1263685 -7.4665174 2.8339174 2.6882033 -0.20466322 0.80140775 -1.7584926
seven -3.9288518 1.5767236 9.612312 2.7834666 2.6777065 1.3400105 0.47442 9.936328 -5.9942393 -0.8244142 8.79027 1.8580853 -2.9611268 2.5324068 3.5424979 -1.1285925 -2.6075542 2.8415346 -4.4089293 -1.5184765
favorit 1.6813464 3.3046806 -6.0645466 -3.2103136 -1.7021153 -5.4596825 0.7638001 5.1772294 -0.33834845 -6.783266 -7.861289 1.6065515 -4.1909776 -1.4157119 0.06582295 -5.3984985 -1.8035237 4.7189865 -7.2962193 -1.5038348
eight -4.0799003 -0.63838625 6.698756 -0.09751215 -6.385243 8.224232 5.118623 -0.28431982 3.3486328 4.539125 -0.85115945 -3.804285 -0.6214678 3.1066346 1.8385434 -2.4600008 -7.3080635 -6.779421 -2.871302 3.8298967
threat 2.3196518 -2.5931761 6.113843 4.324807 -1.0536999 10.623405 -1.6632906 -9.535759 -0.9317206 6.228574 1.6074927 -3.9510093 5.7486525 0.93142587 -3.1010003 1.9558798 3.642644 -0.73408216 -3.7217097 1.0206507
releas -3.7665117 1.8659867 6.3397665 0.16072991 -4.720924 0.93530387 2.953495 6.9788346 2.8149476 0.16359878 5.585513 7.4892797 1.3358161 8.017796 1.8011284 -5.3202844 1.9659264 -7.7627983 -1.1913558 -0.60458297
open -4.480432 1.1305004 -11.714365 -1.8755155 -2.4736707 -1.9411526 0.7826569 5.000562 -10.521541 -0.21475004 0.6843363 -5.3404493 3.7554412 0.32436624 8.171734 -1.1866033 -3.6716638 0.6800715 1.3784717 -4.251884
hand -2.202147 -1.618161 -1.9576097 5.737398 0.47634935 1.7870861 -8.370367 -4.283702 -2.5185103 0.71124023 6.070814 -6.4805956 -3.5525439 -11.054307 2.4232192 2.305226 -2.541142 -1.7506111 -8.546029 3.117738
promot 2.4916928 -3.4390054 1.1246048 1.8661975 -2.1532981 3.1462111 8.243953 2.758602 -0.9285474 -10.5638 0.83899087 -1.3583976 -1.3135004 4.9808974 3.0650005 9.086456 1.9735624 -5.2615194 -3.86437 -2.1596138
arrest -2.150158 -3.7502575 -2.5603611 -2.3985248 9.14626 9.1926 -7.2701745 2.4909 -3.566718 0.44194245 4.2791014 -4.58398 -1.4618561 4.911652 -0.8914863 -2.5286994 0.24324885 -1.2067388 5.479488 0.6383149
less -3.4483624 -5.483739 -1.8962638 -5.1013837 -9.809235 -6.9020443 -1.5390882 -3.7873695 -2.5983489 1.3714231 -0.1532506 10.024892 -1.858493 -0.53016585 -5.8794003 -0.12473193 0.79958165 3.52193 -5.0490184 1.0941969
north 2.28015 -3.1363983 -2.5153592 2.458157 -6.2229266 5.51647 -4.531727 -4.6939764 -4.4113016 2.691143 -4.988281 -2.6002522 -0.65338415 -1.2082773 -4.2873764 7.8471117 5.545754 -1.1154377 1.6953418 -8.741235
free -0.9053515 -3.221938 -2.8625288 -4.6051383 0.5205638 11.223136 -0.47190237 0.4606345 6.652781 -3.3106687 4.878421 5.8424435 6.3492727 4.14352 -0.4640069 6.3249245 0.2990768 -3.947844 0.31009808 4.0914717
antonio 1.089067 -1.9024973 4.914375 -3.1744719 -0.07303293 5.768753 -3.3970335 6.7243323 3.8020375 -2.3118362 2.9382832 0.94462097 1.3044772 3.6666644 3.7647765 11.488525 -3.329457 10.135499 0.70255595 -0.14804801
googl 1.3174716 7.0657716 3.2133367 5.75465 -3.6039011 -0.9781654 5.363506 4.387029 -3.8550391 1.677167 -0.33870727 8.001478 -2.004947 -9.630568 1.7584306 -0.93984914 -1.8383058 1.3818948 -3.570391 -4.717516
suffer -0.5223048 -3.8588014 5.7268534 -11.378257 -0.17157356 6.0581384 -6.020129 -0.80195826 0.33576897 1.4072541 1.6049466 8.73082 4.602942 -1.9440598 -5.7221613 0.08141342 2.4351134 -5.081819 -3.1275053 -2.5316699
later -2.3932078 -0.35669675 6.237384 -3.285944 1.7811341 5.6758757 -2.132174 4.6799016 0.45217773 0.65344 6.235391 -7.568482 5.546242 -0.8636287 5.0955186 0.53104544 -2.6001682 1.4989338 13.3117 -0.5662009
local -6.488247 0.5003314 -5.0283346 -0.3104865 -0.16969219 -7.1956277 -2.7414944 -2.3177996 7.1550927 -2.8779807 -2.0243208 -4.023931 4.887947 5.5307693 4.652652 2.8833098 -0.43874535 -2.3057444 -8.609175 7.1268473
match -4.489254 0.39177793 3.7838135 0.24308226 0.23569854 -5.3349195 -8.654869 0.75675756 0.35939482 3.5225143 0.47260475 4.5235286 -7.9587393 1.2524443 9.603258 -0.36592713 2.6712372 1.7573978 1.7175467 -6.8719697
organ -1.9199821 -1.4842448 3.1729305 1.7032343 -4.464623 -1.3759599 5.4264073 -5.161305 -6.044009 3.9174712 -0.36419177 0.15972035 -7.6397758 -0.14274938 -4.1575913 1.7416068 1.0690407 3.8436713 -7.406242 -5.531669
earn -0.16250502 -0.76309574 1.6223644 5.588171 5.3573046 -3.1347044 0.89340764 -9.464443 -2.0817108 -6.76783 5.680148 0.83017653 -0.4010075 5.0435953 1.9981071 1.9581478 9.574842 0.46292698 -5.8117414 3.3060567
power 7.101457 0.5422531 -1.7054491 2.1564243 0.3578715 -4.5981555 3.1627343 -3.742813 -2.3615932 3.2651489 -7.596876 -1.9514921 -0.7067193 -1.9931421 -3.4535599 -0.13191298 8.803776 -0.32902047 3.228013 -10.729209
truck -4.4813724 -7.3598824 4.6347284 -5.252864 1.5065382 6.9443645 0.9534591 5.2420487 -5.752597 5.7451 0.5197231 0.13957247 -2.1481435 -6.956818 -5.0322304 -1.400053 -10.333063 -5.2984247 -1.4011083 0.9167288
five -4.4481964 -0.51059777 6.535275 0.19366783 7.3952255 5.3446107 -2.3528578 -5.280113 7.400424 3.4258914 4.2017527 1.4712927 2.2506392 2.897841 -0.029028254 -2.5130885 4.4364824 3.66333 -5.570523 0.14956525
surgeri 0.6522386 -3.0674589 -7.527571 -4.5589876 3.2171113 2.8569608 -3.2954051 3.2633681 5.2532215 0.36656517 2.198711 2.7401788 -0.23301625 0.8488854 -6.8830504 -7.9009914 1.8499086 1.912055 -7.922125 0.025947962
opposit 1.919131 -7.046024 5.5336347 -9.433325 1.0928862 3.8683472 -4.1277547 -6.6739793 1.9048545 -0.8349844 -2.200021 -2.5771623 -6.9338 -4.157058 1.631334 1.961444 0.15272807 -1.263831 0.36268184 -4.2924185
europ -6.191729 1.8605183 4.524907 -2.9906235 2.465074 -0.4372249 7.040107 0.91142386 2.0521915 -3.5657184 0.4053543 4.151107 7.685742 0.24949257 5.1078143 -5.0206523 1.6444657 10.65941 -2.5955606 -4.5610447
advis 2.9512875 -3.6787403 7.544596 -4.9361925 -5.1325073 -11.583787 -6.549847 -0.39323914 -3.930032 -3.07127 -3.4712918 -1.6957965 -2.3704967 6.0764914 -0.8303696 -3.6107726 6.0733757 1.0131841 1.0503703 -1.8072804
action -5.969934 -4.179308 2.4814653 -7.1615396 -0.17476717 -8.853708 0.31037337 -0.70217663 -5.6208405 -1.4815301 2.8533747 5.683312 -10.338701 -0.27473056 7.1234202 -2.6951394 -2.2392564 2.9507825 -1.4132122 -2.9188461
law -0.013847849 -5.6739087 2.4566507 2.1394346 5.0838447 3.4901726 -4.897464 -0.6315713 3.1892006 -0.7354313 -3.0259259 -4.630559 -0.6817065 7.646448 -5.2414055 8.305353 4.4174237 -8.542941 8.716904 2.8192205
hour 2.1064367 -1.1373776 3.8654573 -8.221532 -5.675223 3.0356114 2.066014 -5.6054287 0.2862273 -2.9846108 0.46611282 3.6994998 1.6386238 0.48159653 1.3514364 -5.6056266 -3.1139703 0.56398 -2.9783344 6.6127515
job -0.6091879 -1.4226494 6.2962837 -6.4210887 1.1037815 5.8187428 3.9407341 -2.5752082 8.23519 0.38554984 -3.5038426 1.2430257 -0.85345185 0.40585354 -2.5047855 -8.42874 -2.7320304 -3.91126 -4.5202675 3.58454
deal -10.07403 -0.13435574 3.811319 0.9658476 3.9738922 -0.27415088 4.3477345 0.89212245 -1.3843204 -1.7510511 -7.430318 -2.8783166 5.3246393 -4.0756717 3.3408105 -6.865484 -1.1146908 -5.004235 0.23497595 -4.1499004
rep 3.607627 -3.4700153 -8.843417 -11.52939 0.2335804 -7.1008134 -2.6966965 -0.43894768 0.2678193 -0.55598664 1.6325173 1.6095585 -3.2587316 -8.880704 -4.31845 -6.26402 -0.39929888 -0.9074827 1.1683202 0.10380574
properti -0.3820542 4.364675 -0.028539227 2.471313 1.3295827 1.6044554 7.520535 6.4691086 1.5089455 -5.5152674 -3.8381047 0.2560459 2.5239134 3.284301 -9.250574 -2.4172318 6.43723 -6.8336143 -5.074122 -5.6601872
defens 2.7809415 -4.6108336 0.22502282 4.6852684 -10.643652 -6.765681 4.8743587 2.3517315 -1.1552488 -5.517113 -8.230695 -7.4350133 7.6850386 1.7763293 4.156437 3.212883 0.40954193 0.9949025 2.43407 -0.5589867
took -1.3292145 -6.5085425 -10.722569 0.7537467 5.8202868 6.025151 -0.1239529 -4.10024 -2.7151506 -9.924716 0.8583366 -6.286551 -1.2381438 -2.1247814 -1.1290616 4.77983 4.4613447 -6.0019755 -1.0436256 -1.8206081
lose -0.4174637 -6.021313 0.06362852 -2.4809678 4.3601108 -10.244408 1.0087482 0.687483 7.051549 0.9554724 -7.144453 1.4090153 -0.1494851 1.4067686 -2.656883 -5.800841 4.8158774 0.06477568 -3.6111774 -3.5907214
kim 0.46248877 0.35777137 -8.147962 -2.8247259 -5.588041 3.4015753 -5.687879 -4.1460996 4.1557684 6.381495 -1.7168663 -6.2400575 0.24307944 -1.9276484 -12.252886 4.188067 4.099482 -3.7602947 3.861131 -2.7451878
carri -1.9077002 -1.7389473 -3.755434 1.1754278 -2.0019565 2.3828714 -6.930365 3.846053 3.188547 1.7071671 10.481402 3.9783933 3.2921119 0.45067957 -12.024037 2.9183977 8.338613 -7.133341 1.1570146 -0.9495145
jame -1.6889907 -6.7838244 2.7445736 -4.3275213 0.9114404 8.3293 3.167555 -6.6537657 3.562962 -9.57547 1.062273 -4.670567 -0.7982283 2.1561725 11.130842 -2.5615578 2.9119391 -3.1915762 2.1620073 -3.2053401
scene 6.5109487 4.585847 6.382609 1.3290844 11.403005 0.59705573 3.8205655 5.273113 -1.8640854 2.2031786 0.99967957 -3.488249 6.4026647 2.1264453 -4.419359 2.5260868 -0.5170449 -3.1760883 5.598458 6.0866
code -5.332717 3.955997 1.4666822 4.3373384 3.0594788 8.818691 6.097354 -1.1232278 -6.2264113 -4.726679 5.538343 2.3760114 -8.713907 -9.398644 -3.6639965 4.3783016 -4.144672 -4.7372947 -0.7620834 2.2192295
heart 5.236152 3.1852546 -1.0630912 -5.0800576 1.7269033 1.3960168 -1.9213754 -0.92964566 6.50099 3.87986 0.4133033 2.4760194 -2.9791589 -3.6038082 -3.1253638 -5.153408 4.089674 0.80080116 -8.324412 -6.385326
perform 0.24666247 -3.7971134 -0.8834799 0.6214704 7.3766637 3.1517706 0.3741362 -4.0528517 -5.770398 3.6417663 -3.4389818 10.164916 -7.075319 -0.21088597 -5.0647545 -8.473752 3.152014 -0.42565906 -1.8934151 -2.2435176
michael 5.7996144 4.5451455 -16.380808 2.0942523 -2.201183 2.7990956 6.433162 -1.3244556 5.3662977 -0.16827229 0.93735313 7.092646 5.4420624 -1.1120423 1.383152 -6.1674404 0.6559393 -1.7490875 -1.5624079 6.0451894
rival -2.3847764 3.315181 -8.339663 -1.9553167 -3.7975836 -3.8717568 1.3136694 -9.627219 3.9772458 1.3430332 -11.497379 -6.627549 1.8611317 0.73227865 6.97185 -2.6193032 -0.33646685 -3.2700648 -8.757328 0.07420281
progress 8.764921 -1.8220716 0.03434807 0.17860442 -6.0695596 -6.8100615 4.9210453 2.631583 0.53990114 1.0935478 2.5006254 2.9042256 -4.7549057 0.3005141 0.7471283 -12.740621 -1.5202428 3.3601885 1.285329 4.70122
tradit -2.029757 -8.86631 0.43560573 -1.3897891 -0.12208922 -1.5792729 -3.1817925 -1.9722161 8.415758 -0.8401574 0.124412544 1.1028872 -0.87416154 5.249965 10.322131 -0.42913112 -1.9836023 2.8996942 -4.8001876 4.149434
file 1.751363 9.369317 4.2709994 0.8028853 1.1110542 0.2501161 9.803813 -3.793076 -2.1679513 -9.431371 -3.7871783 -3.0288005 -2.3247995 -3.4935238 -5.3671875 3.4629147 -1.3136159 10.676142 -0.119490415 4.7353125
six -3.3184218 1.1392334 13.344763 -3.607912 -4.143339 3.4744782 -0.6177207 3.4620366 -3.4886823 -6.525196 -1.2305542 -10.446128 5.2189407 -0.11182433 1.9065093 -2.6852937 -2.1981184 0.5512885 0.83504677 -1.1189588
khan 5.537032 1.3492107 5.364849 0.30712152 -11.511777 0.8693532 3.811586 -1.7120538 -0.20580639 4.504384 7.58064 -2.4884524 -4.1332436 1.2659293 1.5183048 -1.3818238 0.8142832 -1.7829807 10.914385 -0.09212908
imag -3.0555356 2.7602725 2.313483 -0.51967514 2.580496 -1.9907519 -3.1882143 -1.2253047 -3.115832 -7.7631907 -10.417757 0.7213961 -2.2254112 1.4254477 9.534993 -1.8469334 -0.7498079 -7.9209056 5.788445 1.9593555
develop 3.4615507 0.56218684 -0.79329103 12.429742 -2.699336 7.4222126 5.2315354 3.2388933 7.842338 6.0767064 -4.8639145 3.3305569 2.319275 -1.5471202 4.700192 3.50391 -4.204727 -1.2810556 0.77045745 2.2989335
nerv 3.3341243 -5.640037 -3.445618 0.58135146 6.6946387 3.4574704 -11.923831 0.27775943 1.5121663 13.398834 3.856196 3.7128155 0.02046045 0.74171054 -3.4701002 2.9718838 1.1278349 -3.370338 1.4770283 2.2629337
investor -10.526479 -2.4792006 -3.670509 0.68521786 -2.2981462 0.53021485 2.8048615 4.066382 -6.150169 -4.1647086 1.0327855 -0.070186675 -0.19407971 3.1769018 -10.141501 -5.8450527 4.020578 -10.316194 -2.5856054 -3.3536606
test -4.3601756 -8.437967 6.609947 8.287855 0.50083196 2.3622718 -4.0628543 -0.22483547 -4.1781697 9.457621 -1.8006036 -1.3879601 -3.6625586 1.6740558 3.8574774 -0.3379995 -4.5294857 5.652888 -2.405896 0.11953394
fox -6.760362 7.8305225 4.6691875 -4.246307 -9.336591 -3.4080846 1.0717803 -3.020958 3.2125912 -3.7360234 -0.30980706 -1.242653 -2.1638353 8.221207 2.853225 -6.3904305 -0.16925836 4.6646914 -0.6504871 4.1271753
project 4.141796 1.1313623 1.8743099 4.6187205 1.0334657 -6.609936 8.763089 2.3697157 -3.5493062 0.6232961 -4.8279443 -11.737251 0.62422836 -2.455804 0.98327947 0.16639347 3.162067 1.0578732 5.6505675 -8.645256
pm -6.8457007 4.3827596 -5.9470387 -0.10319564 7.853313 -0.48987126 -0.8038119 -4.7686324 -5.3981566 -3.4593663 1.3482976 1.0968312 -9.580984 -0.402756 4.2952585 -6.820932 3.1406426 -3.3741243 -2.6494942 -2.5994182
eye -1.3054093 3.744672 -2.7374575 -3.4637656 11.111753 0.84278184 0.08661435 3.5228531 -0.98646533 -1.1580045 -6.9120083 -3.662093 2.1779306 -4.453074 -4.395362 5.7272573 1.8384706 0.82451314 8.689554 -6.4885178
parliament 4.4994936 -1.114754 0.88787854 -2.274814 3.3986387 -0.36463836 0.5494178 1.1830498 7.6212254 6.1803064 3.64631 6.258068 12.728573 -2.6521368 1.4259993 -4.282387 1.36585 3.0867481 -0.50338113 2.6878119
hate -2.623522 0.76649666 0.9659329 -3.6887953 -8.49708 -6.2687926 -4.363267 3.4626827 -1.6652248 0.30300355 4.7384005 3.5941436 10.58596 -7.829984 -3.5119574 -0.8332199 2.054474 -1.6360638 -0.36574617 -1.4510483
